a3 0.0012028664 -0.043072857 0.013685345 0.011459282 0.006864365 -0.0028805155 -0.008669867 -0.0074152965 -0.05722764 0.04274334 0.025112165 0.028877534 0.032833397 -0.00074835354 0.0016263211 -0.026845355 0.025153674 0.010349468 0.017867643 -0.0076892283 -0.025754217 -0.021450171 0.03410484 -0.009819791 -0.0010968372 -0.023288077 0.0021860776 0.029518833 -0.01515954 -0.022357244 0.009461729 -0.025222117 0.012040974 0.013411872 0.012510537 0.03912064 0.02309257 -0.027830679 0.020411149 -0.004247116 0.043941107 0.004609431 -0.016727451 -0.00034859392 0.025733154 0.0051726177 -0.0395821 -0.0032521856 -0.009037462 -0.010484981 -0.013916986 0.017454837 0.0006745332 0.0640627 0.06706233 -0.031243253 -0.0052944655 -0.032067385 -0.013528639 -0.03937639 0.040893085 0.016368518 0.004702975 0.0030757394 0.0004689381 -0.038326602 -0.0038729832 0.012841897 -0.027483903 0.0011570007 0.00062841363 -0.050132256 -0.0059176087 -0.0069334637 -0.019801406 -0.037074372 -0.0164022 -0.04575387 -0.0035114011 0.008138797 0.0069209505 0.012874853 0.009557983 -0.007390856 -0.0031103203 0.008745488 -0.013928549 0.018723136 0.029213984 -0.022616304 0.020266928 0.02346065 -0.004338758 0.056124315 0.038564034 -0.017433828 -0.040065438 -0.015009004 -0.005209044 -0.01460468 -0.03667859 -0.03903444 -0.028828405 0.002527427 0.01934839 0.030787136
a7 0.006355595 -0.016664198 0.022854112 0.044111393 0.012848945 -0.0045050103 -0.026316661 0.008027932 -0.028996378 -0.0112401415 -0.03490135 0.03849163 -0.00055404287 0.0067472747 -0.008862369 0.009570837 0.009545781 -0.025082665 0.06626936 -0.0008178558 -0.00961393 0.025910225 0.06545289 -0.031768806 -0.008659224 -0.006205043 0.07249859 0.0115831755 0.032772474 0.025299024 -0.008805211 0.064712964 -0.024611026 -0.008231694 -0.012471568 0.009558337 0.00076672016 -0.037079174 -0.025596973 -0.01005809 0.011143921 0.053543184 -0.025446497 0.01121308 0.024300398 0.012336656 -0.031109456 0.022118034 0.012791175 -0.012642239 -0.044590607 -0.0038976949 0.019840907 0.034692045 0.027857611 -0.015994485 0.0021148734 -0.04786197 -0.016706455 -0.022347968 -0.009518307 -0.010422092 -0.027772594 0.05313883 0.011124516 -0.0035672002 -0.0012386495 0.022491213 0.0107152 -0.03349439 0.019944446 -0.040030055 0.014421279 -0.01123962 -0.04270386 -0.016334072 -0.015869487 -0.04193983 0.0005017129 0.020348733 0.0352725 0.0015589967 0.029350515 -0.011186882 0.02259508 0.013621109 -0.022147825 0.00954958 -0.00015806779 -0.015022329 0.0758994 0.026931375 0.008503505 0.018749014 0.05913513 -0.012995176 -0.014164646 0.035617113 -0.05544431 0.0065045897 -0.034533143 -0.006766082 0.03256291 0.010323573 0.05787602 0.026121173
a10 -0.0030734036 -0.015142913 -0.005181218 0.024709353 0.045231864 7.65603e-05 -0.016168967 0.012829956 -0.016357385 0.036626272 0.037726495 0.022314573 0.04000868 -0.0037864046 -0.022704223 0.0099943355 -0.041189898 -0.014237808 0.03686544 -0.033601996 0.007011203 -0.015863385 0.03244565 -0.008635523 -0.041584324 -0.05179137 0.055273186 0.0062908046 -0.017176181 -0.013605904 -0.004320834 -0.050188873 -0.021158207 -0.005707508 0.032157086 0.045180596 -0.04081214 -0.017809363 0.015116839 -0.000463143 -0.0023588822 0.013078102 -0.009888748 0.013259197 -0.00130374 -0.02579604 -0.009799681 0.013108412 0.007126456 -0.0197197 -0.0124893375 0.033809733 0.054944158 0.016428381 0.0739846 0.03635361 -0.018500403 -0.016065639 0.024048733 -0.029278163 0.08698218 0.039217588 0.03132141 0.04802363 -0.015316838 0.0069474336 0.026748812 0.014442597 -0.0013902988 0.0068819225 0.00855765 -0.042505126 0.0074050985 -0.015015491 -0.026125364 -0.060196124 -0.03585533 -0.05151859 0.021572828 0.0014337413 0.0028334428 -0.04503376 0.0051739514 0.013225619 -0.013156394 -0.0447163 0.015396049 0.013645834 -0.03658389 -0.011664957 0.019101221 -0.013239674 0.000103756785 0.0153357405 0.033360016 -0.011664261 0.019167675 -0.0013949568 0.0128119895 0.028218422 -0.048825316 -0.011963503 -0.029465359 -0.0036435034 0.010882206 0.016650155
a23 0.0020449068 -0.01715244 0.01755885 0.042047143 0.032608457 0.0078415675 0.008364478 0.032456003 -0.038106807 -0.01244875 -0.003491025 0.06431795 -0.0007392196 0.024607347 0.027160995 -0.0034643114 0.0129229 -0.01081243 -0.008984917 0.014596926 -0.02376278 0.0071712583 0.056812003 -0.0017810706 -0.008754837 0.0085883085 0.05940766 0.006109885 -0.0009902166 -0.03699762 -0.041988604 0.0065301266 -0.015817413 0.027382035 -0.016398598 0.07329392 0.014544095 -0.03609552 -0.035677724 -0.019049667 0.0014089389 0.009944464 -0.021647148 0.021920873 0.054488875 0.0022146013 -0.019406486 0.048968986 -0.044662073 0.002089668 -0.0037281378 0.006913863 -0.021351881 0.039974842 0.026364407 0.010072309 0.0040048505 -0.016740901 -0.0037676636 -0.043106593 -0.012327282 0.039928794 0.0033718366 0.061373644 0.0026901388 -0.016180988 -0.004964335 0.024437461 0.019766474 -0.048020802 0.022696503 -0.0191697 0.010351248 -0.047383055 -0.015703684 -0.024243034 0.004052894 -0.020716973 0.0011247041 0.003092401 -0.009787643 -0.03141775 -0.0046401117 -0.003158146 0.019881167 -0.00029252458 -0.007564055 -0.03386744 0.009754997 -0.02596547 0.070059255 -0.0050289393 0.03526984 0.00852235 0.037599776 -0.008770514 0.012053467 0.015117591 -0.012482006 -3.0305237e-06 0.0060669594 -0.03571281 0.031734478 0.010261692 0.028761005 0.017400773
a27 -0.013997655 -0.006057402 0.023460904 0.008536672 0.027247697 0.015582681 -0.001346757 0.041433446 -0.043333203 0.013754259 0.005917476 0.050946545 0.050759193 0.046294827 -0.028308365 0.0013191737 -0.009951422 -0.011633946 0.019236483 -0.0016239258 -0.00063559227 -0.029877497 0.031023273 -0.034337945 0.007887457 -0.01404102 0.030899152 0.019043598 0.020495236 -0.006266096 0.021699104 -0.0058814217 0.022966342 0.008028626 0.013121483 -0.040648594 -0.027205572 -0.017033638 -0.01788954 0.02575617 0.010635199 -0.011050593 0.0015857592 0.014418167 -0.03569921 -0.0025604144 -0.0039845314 0.02141348 -0.029134503 -0.026797999 0.0022376226 0.027429063 0.043931812 0.022729183 0.0042639934 0.0011018235 -0.029195413 -0.019701937 0.0025021266 -0.017170174 0.04259413 0.017190587 0.0130916415 0.0029286593 0.004659649 -0.0048603583 0.033669673 0.02389287 -0.013112424 -0.025556728 0.030701162 -0.04242498 0.039139867 -0.004231107 -0.016774107 -0.040070236 -0.00064815977 -0.050596673 0.013717315 0.014148053 -0.0016969088 -0.026534481 -0.010978138 0.01823063 -0.034373917 -0.002422852 0.019470844 0.03075483 0.0010860916 -0.0040697157 0.057010353 0.0073876847 0.004958954 0.030510468 0.07853412 -0.008605059 -0.02683334 -0.0117220525 0.0069344384 -0.0012264568 -0.00055431016 0.006343895 -0.024443299 0.010717065 0.028850157 -0.005516977
a28 0.009243723 -0.0004794672 0.015451268 0.022999868 0.027665136 0.00015005656 0.014654657 0.022399373 -0.017525706 0.010015796 0.021684019 0.008088804 0.03236423 0.034246463 0.0037697558 -0.0078120735 0.033362053 0.005116108 0.008193262 0.016506925 -0.03350665 -0.0049391035 0.04959041 -0.026204636 0.0023076711 0.0018458132 0.03892798 -0.01751907 0.007355262 -0.020883955 0.004510357 0.021132646 0.027780123 0.002424513 0.022563046 -0.0064972434 -0.039641242 -0.03366158 -0.020636436 0.015965551 0.03444878 -0.026475115 0.016809002 0.0074461238 -0.013350781 -0.030746605 -0.0399628 0.008127861 -0.0021722936 -0.003698825 -0.024168283 -0.009084862 0.028731398 0.05632534 0.054677404 0.026422353 -0.024696566 -0.012321026 -0.03705722 0.0024044332 0.034586575 0.015768405 -0.031225422 0.03488349 -0.004549562 -0.0041638464 0.010090482 0.028955601 -0.041964952 -0.012197435 0.013201961 -0.060377415 0.031820565 -0.013717823 0.0030715764 0.010355982 -0.009877826 -0.035262592 0.008285472 0.008601403 -0.02488615 -0.0068294033 -0.02170554 0.02182637 0.010786218 0.023634626 -0.02054729 -0.01843359 0.007938932 -0.03114229 0.025804061 0.028790776 0.008310245 0.037428856 0.07859066 -0.0126829725 -0.03614516 0.027481323 -0.0111355 -0.012293678 0.00042428263 -0.013352587 -0.04827968 -0.009351626 0.038603954 0.039795477
a34 0.03913545 0.009899117 0.040992394 0.016435562 0.05225149 -0.03610591 -0.009316303 0.028984789 -0.059543766 -0.010760617 -0.03430446 0.0728601 -0.015602086 0.013339769 -0.028779048 0.055063147 0.043691028 -0.03835716 0.03290335 0.0025542155 0.024391156 -0.013464875 0.05259767 -0.0064905086 0.06415519 -0.018513972 0.063274756 0.001119948 0.007255548 -0.008955006 -0.048418727 -0.026530916 -0.072046146 0.032342363 0.017548157 0.03094067 -0.03432868 0.02419173 -0.020360403 0.024384022 0.030252319 -0.011876997 0.06914215 0.07354223 0.010238662 0.028442234 -0.010719784 0.05726841 -0.024994697 0.018955655 0.009715529 0.025716908 0.00046537537 0.049668524 -0.03994406 0.0088292705 -0.024919555 -0.06362853 0.016590271 -0.032419056 0.011859766 -0.01909901 0.019476803 0.06636184 0.03098014 0.032036223 0.049339574 0.053531755 -0.011833828 -0.02759288 0.061498206 -0.025523515 0.07410729 -0.017350141 -0.017497543 -0.048468787 -0.016885785 -0.027640358 0.02149301 0.037955377 0.06385024 -0.06944685 -0.07270359 0.03203151 -0.019786518 -0.02755392 -0.037944637 0.07544406 -0.021959737 0.00825622 0.050228298 0.018430607 0.009854085 0.023740847 0.050833695 -0.06358661 0.014937649 0.07853983 0.0476448 -0.006795314 0.0051644975 -0.0140168425 0.03777322 0.060918126 0.07731161 0.014787086
a35 0.059923984 0.03335873 0.058530062 0.0421371 0.027736938 -0.0547163 -0.04242004 0.030191986 0.0052171885 -0.017023224 -0.04034721 -0.003066047 0.020633467 0.016380718 -0.019086894 0.034513354 0.02246212 -0.048143305 0.06350934 0.025685675 0.014630288 0.005466339 0.030525595 -0.0495501 -0.014381843 -0.036631048 0.034053076 0.036034156 0.016330922 -0.014256971 -0.016153498 0.057789084 0.014958395 0.04936244 0.011332663 0.009565217 -0.03449669 0.028943377 -0.03772141 -0.014232852 0.05470521 0.026437186 0.014507359 0.06747772 0.06566855 -0.026562102 -0.016794477 0.009547665 0.011931405 0.002581901 -0.04135011 0.0059796874 0.016080642 0.0148638785 0.026333217 0.008553313 -0.008425725 -0.008142775 0.00041700806 -0.013804097 0.065154284 -0.0085354475 -0.040081967 0.06321349 -0.004538498 -0.03393499 -0.0035685329 0.02132043 -0.008982146 -0.007344446 0.011119784 -0.0065923412 0.05337125 -0.011189224 -0.021803811 -0.001115649 -0.0012009623 0.024753748 -0.029262606 -0.0077113747 0.04604202 0.003899686 -0.018245522 0.020667821 0.030930515 -0.011835533 -0.018657247 0.011128662 -0.018278781 -0.014586079 0.0632971 0.032165047 0.007599895 -0.0036382843 0.062445976 -0.0003112154 -0.005308807 0.080943525 0.01070775 0.0063275183 -0.038290158 -0.035249084 0.02876946 0.022856023 0.06546687 0.04865594
a36 0.03381621 -0.0011180192 0.015529083 -0.0097956415 0.0522078 -0.025661603 -0.019003717 0.03333527 -0.041712448 0.004703738 -0.013683313 0.052224003 -0.0027746428 0.0360345 -0.031686705 -0.015102733 0.011924246 -0.0009968518 0.01953706 0.04183259 -0.03579906 0.008332025 0.058996826 -0.048497196 -0.00750821 -0.0034778048 0.05286607 0.0027385587 0.0057685124 0.0055358587 -0.018323971 0.05129508 -0.010334918 0.004156179 0.0063268365 -0.00030447356 -0.007355485 0.01541268 -0.03568675 -0.0036920276 -0.0044032177 0.031977937 0.031779055 0.04055026 -0.0129846055 0.01027146 -0.04955048 0.03895644 -0.017936807 -0.031153306 -0.038803577 0.0038790563 -0.025104169 0.050372593 0.019225728 -0.016504781 -0.032170113 -0.022969162 0.0049444214 -0.037351288 -0.00574179 0.009005353 -0.014906716 0.0133185275 0.04663519 0.011449026 0.019189961 -0.00532756 0.0033929385 -0.054530524 0.043672677 -0.01830857 0.031834044 -0.01581385 -0.013181217 -0.021618195 -0.020876033 -0.014861116 0.03774779 -0.004050349 0.047991794 -0.018088432 -0.00092573464 0.034292344 0.0014473073 -0.01869859 -0.023734488 0.04477573 0.001962386 -0.028689321 0.058259934 -0.018715315 0.0013562979 0.047086634 0.02534528 0.015733862 -0.016370716 -0.0042649023 0.05983887 -0.02182012 0.036171205 -0.015221449 0.0063937744 0.028485028 0.042491883 0.021402743
a40 0.024974858 -0.010680659 0.0481072 0.009328938 -0.002652255 0.0014306996 0.00548831 0.023836233 -0.024617143 -0.0046644863 0.002263713 0.07300508 0.047629252 0.0036753076 -0.0035033217 -0.0023737475 0.010563737 -0.00079262606 0.0073017646 0.037498053 -0.012025318 0.011070375 0.030182693 -0.024200384 -0.0059124026 -0.023290154 0.03649679 0.0055026594 0.019255744 -0.013921425 -0.016147794 -0.00839459 -0.0057925293 0.06063564 -0.024692938 0.013409115 -0.03122221 -0.024752952 0.0020130994 0.036446624 0.019052565 0.027229007 0.005104013 0.007341982 -0.04269747 -0.028081609 -0.017074069 -0.010732621 -0.03197137 -0.018046089 0.005510525 -0.005314843 0.060040522 0.0590747 0.03630308 0.010168018 0.012152757 -0.03960093 -0.02579632 -0.030695658 -0.0104413275 0.0035867356 0.0024248268 0.0038527027 0.0030827895 -0.025609858 0.0018114671 0.023356795 -0.001939239 0.0028707534 -0.0092837075 -0.019936264 -0.0014766678 -0.013372116 -0.030266443 -0.043877352 -0.028901601 -0.052853297 -0.011328406 -0.009312116 0.019692253 -0.03109586 0.011224108 -0.017678631 -0.008062111 0.023711612 -0.014399874 0.011821115 -0.0019679368 -0.022291712 0.042544305 0.011449965 -0.01987705 0.055218734 0.069393195 -0.027740698 -0.0430687 -0.026952695 -0.002084223 -0.014112325 -0.03848752 0.017526025 -0.029316379 -0.01609664 0.05749838 0.015565771
a51 -0.010137847 -0.016705316 -0.006514974 0.0108643565 0.032172475 0.0084821135 -0.00026748993 0.01896835 -0.0471408 0.0066996366 -0.007378519 0.04176487 0.01529725 0.01859049 -0.014929668 -0.008396326 -0.019949691 -0.002804583 0.03464668 -0.015794188 -0.023424415 0.008673836 0.028739363 -0.005844609 -0.019062787 -0.010093309 0.052947894 0.008317184 0.01694927 0.017389117 0.009903912 0.023996495 -0.012341887 0.00044210628 -0.0112561695 0.030692086 -0.016116 -0.025891311 -0.028946666 -0.015423361 0.008423154 0.021069134 -0.038685262 0.01480921 -0.0041631972 -0.0025099125 -0.020266728 0.012987963 -0.0024782736 -0.007867884 -0.019086968 -0.01587317 0.028258225 0.02736593 0.034377605 0.0026241764 -0.02113109 -0.0065098014 -0.00096696615 -0.026011549 0.02384547 0.008740563 0.012232136 0.004020497 -0.008294726 -0.011616347 -0.012889539 0.036844164 -0.01974598 -0.02708809 0.024360575 -0.02684142 0.0045028105 -0.016845418 -0.0284319 -0.0142156845 -0.008063022 -0.03813705 0.011132556 0.00021986291 -0.00060392916 -0.019736087 0.010019189 -0.015029362 0.03720664 0.0034753305 0.003552833 0.0015235078 -0.0071235374 -0.0016070446 0.050690033 0.015837679 0.015659159 0.02655311 0.0473139 0.006274267 -0.018014532 0.02661888 -0.03903719 -0.007009521 -0.022341823 -0.0010650991 -0.014739018 0.020459017 0.011889642 -0.0021374188
a53 -4.114397e-05 -0.0030131824 0.013008954 0.023625527 0.031996038 -0.0051856823 0.004434194 0.012166411 -0.036413472 0.013113677 0.024874317 0.036234435 0.03434763 0.019421544 -0.013597699 -0.02441296 0.020316482 -0.0022016624 0.017857855 0.018504152 -0.021527473 -0.0030201257 0.042655777 -0.0056831613 -0.014541045 -0.011620197 0.03430581 -0.020244323 0.02160526 -0.023806151 -0.010606029 -0.0060229134 0.033651426 0.024779 -0.0020233858 0.0067592785 -0.02956379 -0.01407582 -0.029283728 0.04409706 0.021880554 -0.007019244 0.005095631 0.023053199 -0.04429893 -0.024609502 -0.023399323 -0.0017970013 -0.01301982 -0.024106119 0.00022842828 -0.023519833 0.017281566 0.051064756 0.034808245 0.019388165 -0.011760553 -0.010466887 -0.008635983 -0.013965355 0.034831375 0.019590579 -0.006303742 0.007910746 -0.0030685226 -0.023653833 0.028551206 0.05247214 -0.01854473 -0.027572345 0.037950944 -0.049939245 0.03253051 -0.04324309 -0.013586654 -0.0224492 -0.00773359 -0.04860229 0.0047034696 0.0151363425 -0.008974018 -0.032455333 0.0030715559 0.0020734346 0.013409558 0.0015627479 -0.015949748 0.016645957 -0.004230147 -0.0184284 0.04767426 0.03630294 -0.0071373833 0.034993637 0.052372135 0.0026144641 -0.03048028 0.004487466 0.0121177565 -0.018127376 -0.004188926 0.0065444587 -0.032331355 0.009373618 0.049844384 0.008726217
a58 0.048666973 -0.022378795 0.0800404 -0.0062684277 0.02309348 -0.01105912 -0.01919159 0.033681918 -0.021053292 -0.01644934 -0.012950541 0.021385467 -0.011071721 0.007125505 -0.008054288 0.011452943 -0.018724203 -0.037711535 0.041207988 0.015757723 0.014937187 0.007120796 0.0500014 -0.008915602 0.02269814 -0.039258152 0.037377458 0.018977791 0.022653906 -0.019696368 0.023172712 0.008730733 -0.007932141 0.015055497 0.010520859 -0.015594294 -0.019114079 -0.029761989 -0.00225764 0.019780373 0.023495547 0.033913627 0.0031407177 0.04066273 -0.016308615 -0.017699204 -0.009649658 -0.00027741631 -0.04413866 0.0078108795 -0.015784197 0.0023851928 0.032162026 0.012537196 0.012165368 0.0006162161 0.027052354 -0.031642254 -0.012775267 -0.028594237 -0.00028348714 -0.009556852 0.010575261 0.03607832 0.044674054 0.0037746625 0.023960821 0.010332238 -0.003282116 -0.05548543 0.04688491 -0.032989472 0.034134682 -0.022215553 0.004463404 -0.04470054 -0.015197974 -0.028084632 0.009729255 0.022397012 0.024005901 -0.022977293 -0.009962162 -0.003575062 0.002213602 0.0050683115 -0.012408059 0.059232205 0.009480332 -0.0125647355 0.054814935 0.017436914 0.027105525 0.019736996 0.050281093 -0.010322943 -0.0044410564 0.020963928 0.0041609295 0.016039684 -0.0514499 -0.015397419 0.019384531 0.04023864 0.073024444 0.061410632
a63 -0.0015961733 0.009654992 -0.009288061 0.0025247633 0.023843162 0.005524894 -0.024616864 0.045396764 -0.030977871 0.004758047 0.030182373 0.045786098 0.021260649 0.02542703 -0.026221503 -0.0010318775 -0.0047536874 0.002151494 0.016059067 0.011515828 -0.012609115 -0.024065018 0.027541567 0.0014718194 -0.016438395 0.005811355 0.03219062 0.013831329 0.022618225 -0.0015656091 0.0015167902 -0.0008855035 0.03639173 0.011694155 -0.009196489 0.008970127 -0.025308426 -0.025627747 -0.0244843 0.023198143 0.022055376 0.0044980184 -0.015740484 0.041795436 -0.012880487 -0.002861986 -0.014623437 0.01234949 -0.012565272 -0.005347701 -0.00915234 0.0005146819 0.034161285 0.029552938 0.03005618 -0.0022636391 0.017677568 -0.004541865 -0.026913002 -0.031966653 0.049684383 0.01828557 -0.020342164 0.025671382 -0.010640649 -0.011487742 0.034082346 0.026303893 -0.019581873 -0.015308672 0.02274653 -0.016043298 0.010029186 -0.023450315 -0.02873647 -0.034825675 0.0010104701 -0.0153502505 -0.0057699373 -0.007124531 -0.021629177 0.008198476 -0.008214025 0.027326597 -0.009229578 0.016434789 0.023657456 0.00322501 0.009517477 -0.007233514 0.046968 0.02391257 -0.004076408 0.018102035 0.078616485 0.012945039 -0.01707457 0.022338277 -0.0049918965 -0.020113274 -0.019411054 0.0019488918 -0.03674048 0.011811733 0.008018285 0.018910456
a70 0.032958455 -0.0012858934 -0.018280514 0.03834082 0.029238999 0.043624513 -0.006951943 0.014125197 0.012930884 0.010495689 0.014250081 0.04678175 0.004549533 -0.025638763 -0.029471157 -0.009622596 0.002951675 0.0042413883 0.042498555 -0.020263476 0.008165497 0.0029735025 0.022785712 -0.0036097625 -0.047280617 -0.02971198 0.022341385 0.017943747 0.01028513 -0.043095358 -0.013992282 -0.015625194 -0.007287815 0.01694037 -0.010043242 0.0045064315 -0.01885197 -0.044357523 0.021640383 0.016902613 0.00037957472 0.024672689 -0.055879742 0.013055224 0.0011691637 -0.030588616 -0.05585462 0.013797712 0.0073911743 0.0068454295 -0.016427863 0.00053497497 0.034257982 0.03802725 0.015885554 -0.034636937 0.015336569 0.0007944418 -0.010627622 -0.038587347 0.038556162 0.03759213 -0.024651676 0.03518091 -0.018450215 -0.035499126 0.036195934 0.0398067 0.0052937316 -0.043852072 0.03691135 -0.02415957 -0.023487203 -0.05254424 -0.022510165 -0.045178957 -0.027904173 -0.025551066 0.029231314 0.021136995 -0.023172788 -0.007442761 0.021934068 -0.024568642 0.023956671 -0.021869374 -0.01018277 0.020645883 0.02145421 -0.016798098 0.05678958 0.013421353 0.009104233 0.052974135 0.038524896 0.025575576 -0.006614005 0.0007712841 -0.012264968 0.0142228715 -0.027364714 0.023527713 -0.05540302 0.057329956 0.03404979 0.012892201
a72 -0.0029023718 0.004939148 -0.00015496567 0.013881609 0.018166304 -0.01013161 -0.006075155 -0.0015099645 0.003662873 0.002249848 0.008290452 0.062012196 -0.010881536 -0.009404056 -0.020227004 0.008826036 0.02079603 -0.0067342925 0.029224467 -0.017524643 -0.03427452 -0.021934342 -0.018017508 -0.030727163 0.02986186 -0.027037593 0.065368176 -0.005895512 0.018953845 -0.01512306 -0.029993616 -0.00655911 -0.021924175 -0.01206393 0.019011684 0.02946408 -0.018350039 0.018128462 -0.04359256 -0.016477752 0.035173174 -0.016127914 0.033708267 0.062964775 0.020535706 0.018216794 -0.055621337 0.029849961 0.011023011 -0.0064759133 -0.034773014 0.017651103 0.004848404 0.050861623 0.0025973395 -0.034466043 -0.048649095 0.001645387 0.0030049514 -0.0051813074 0.008514234 0.025236826 -0.010877448 0.05374138 0.0050307754 -0.017822 0.0298118 0.013675271 -0.007787809 -0.052460402 0.053175796 -0.042151697 -0.0130658 -0.019269723 -0.037894547 -0.030456495 0.008521965 -0.023283884 0.013701899 0.06900711 -0.002298234 0.009263935 -0.0155748725 0.013268059 -0.00014322001 0.005678742 -0.0052055474 0.05531321 0.013469023 -0.020795286 0.032440387 0.011509254 0.021528129 0.026578993 0.022663396 -0.02402176 -0.0074242186 0.04097296 0.019886032 0.013167402 -0.0037453817 -0.038497213 -0.010878855 0.049510077 0.056831576 -0.009099276
a73 -0.00828329 -0.0073981425 -0.030111501 0.020781351 0.034547348 -0.02962649 -0.019926855 0.0029336084 -0.04404018 -0.041641966 0.023548372 0.093537174 0.012632543 0.033141553 0.010691125 0.019571424 0.010552579 0.0055277385 0.03444714 -0.006538165 -0.04234864 -0.061354764 0.041796893 -0.023739647 0.043540273 -0.031334214 0.05606684 0.0029700045 -0.0039873365 -0.0024842913 0.010009361 -0.041367956 0.0070060715 -0.0018713642 0.023834854 0.049744077 -0.06395928 0.0048701465 -0.03098062 0.023752525 0.020403381 -0.017221743 -0.008240679 0.033870514 0.026634825 0.006961571 -0.030469138 0.017496824 -0.023516454 0.021892507 0.003805941 -0.026784789 0.019069104 0.019044103 0.012127366 -0.005554226 -0.008878658 -0.016020404 0.024083612 -0.02841494 -0.021486444 0.005329309 0.036405697 0.042997196 -0.007474509 0.007569261 0.02630196 0.00088942423 0.0018191803 -0.0669073 0.047126763 -0.040630907 0.03307605 -0.023342406 -0.010503856 0.0034212526 -0.0049099685 0.00040943362 0.007654779 0.00024846103 -0.022820102 -0.032302268 -0.004106486 0.030032773 -0.0006554038 -0.0015780785 0.013204509 0.0067028673 0.034524463 -0.008131709 0.04597634 0.022327252 0.015605567 0.046231076 0.011696383 0.035884023 -0.023561612 0.01190622 0.036992904 -0.010484659 0.021015717 -0.042668737 0.008943377 0.004504337 0.0035668798 0.03673347
a80 0.0043866336 -0.018991025 0.010118466 0.018059053 0.005757515 0.0010159872 0.0048588207 0.007711798 -0.011976184 0.0032813624 -0.0002406193 0.06138815 0.0011351947 0.005411433 -0.016875863 0.0035286844 0.0029101097 0.0013681753 0.015344748 -0.0035409182 -0.00967755 -0.011084816 0.005958529 -0.031007232 0.006865604 -0.019929703 0.06360175 0.017718663 0.01874445 -0.015878174 -0.025883768 -0.011652509 0.0005523646 -0.009051155 0.017532188 0.0093964655 0.000973901 0.010220658 -0.03253115 -0.016159233 0.01238872 0.0045957137 -0.0072319955 0.052068975 0.017216627 0.0004232321 -0.039453138 0.0035233002 0.004321022 -0.00784043 -0.016923891 0.005045046 -0.020278338 0.026795216 0.04618826 0.0011074338 -0.020410772 -0.02181774 0.01745328 -0.02717985 0.036716625 0.029569633 -0.021583617 0.063397646 -0.0086200675 -0.036385294 0.02809104 0.01199415 0.011591069 -0.04531013 0.040367104 -0.0327234 -0.01972941 -0.01969475 -0.012294385 -0.014061629 -0.03086419 -0.031784657 0.01035463 0.039048906 -0.008071051 -0.0015641954 -0.019818421 0.0076297293 0.026698938 -0.009588679 0.0027291868 0.034615844 0.015312416 -0.021896038 0.04617544 0.0061956686 0.010578228 0.06456542 0.016375845 -0.0067757526 -0.016025357 0.007074625 0.0048669516 -0.015274917 0.012530392 0.013764704 -0.009732707 0.026538983 0.04746347 -0.0148490565
a82 0.016517056 0.00020504836 0.0107744895 0.003878871 0.03443236 -0.011485709 -0.022939464 0.036152698 -0.05369316 0.03363497 0.017478518 0.026719065 0.026606612 0.01699092 -0.0026407493 -0.017313171 0.006806449 0.007416063 0.026241971 -0.0003328435 -0.025263455 -0.039923117 0.04076165 0.011500817 -0.016758053 -0.00408041 -0.0020163362 0.029072532 0.0011501396 -0.009453623 0.0075996015 -0.020035744 0.022419665 0.031312965 0.009259263 0.028440557 -0.016973136 -0.04326006 -0.017325688 -0.007750791 0.02983313 0.0063106287 -0.04576277 0.044370994 0.008005459 -0.0107294675 -0.0071559474 0.0031173616 -0.0040534604 -0.0021363376 0.0013997732 -0.0025226902 0.029986773 0.021290474 0.049735885 -0.022970105 0.021667713 -0.0058442457 -0.0043219365 -0.03988901 0.058552574 0.026209617 0.012258999 0.030310396 0.0012962911 -0.0064425487 0.017203178 0.044642728 -0.02422345 -0.012644303 0.025974723 -0.027610684 0.0233659 -0.010058298 -0.028048703 -0.0475979 -0.001917515 -0.0011028964 -0.012095088 -0.020840041 -0.01817309 0.013852004 -0.0022109393 0.02619182 -0.010078928 0.005728066 0.008584698 0.01512186 0.022265628 -0.01097177 0.047903784 0.02480396 0.011976151 0.009206859 0.07311979 0.001567753 -0.024298023 0.025811464 -0.00096726906 -0.020100519 -0.052283376 -0.010497348 -0.013236193 0.007664835 0.022232916 0.0353192
a83 -0.04451128 0.011524661 0.01387661 0.011830957 0.011833142 0.019347308 -0.010902977 0.032596 -0.043563172 -0.014973747 0.021757679 0.07917163 0.04428367 0.033647582 0.009998587 -0.0001504682 -0.023297656 0.0015187103 -0.0058182687 -0.047775425 0.00080830045 -0.049369544 0.026734367 -0.018574871 -0.010730569 -0.03836409 0.041851074 0.020227036 0.021862242 -0.0048616556 0.007689473 -0.018836487 0.017687993 0.017134558 0.054028258 0.01878856 -0.039848227 -0.019412875 0.0077522094 0.004087614 0.0102772135 0.0055321683 -0.015425019 0.03907812 0.011702275 -0.026372723 -0.031811375 0.023199286 -0.02856238 -0.008778748 0.0079956455 0.0076864017 0.046740666 0.06406261 0.026982807 -0.0037729116 -0.03367312 -0.04386385 0.04490917 0.0071775205 0.06409109 0.053467453 0.0041396646 0.03883098 -0.02593366 -0.054141596 0.039913323 0.033689912 -0.0045613954 -0.009627396 0.0044335546 -0.04926857 -0.001683481 -0.049433447 -0.000103368424 -0.017855229 -0.03331562 -0.027524903 -0.018690692 0.0100730555 0.0035796165 -0.002484003 -0.022293333 -0.01536295 -0.005530229 0.008041247 0.022523401 0.010398418 0.006334995 -0.01870319 0.037085287 0.041498587 -0.026403919 0.037034266 0.05452022 0.007656423 -0.021793723 0.010418266 0.008649863 -0.008649912 -0.0008733729 -0.0006872406 -0.0053808275 -0.01116954 0.020944549 -0.0028098256
a84 0.009756627 0.026732855 0.051672366 0.017408773 0.098335415 -0.043239288 -0.033617295 0.023832828 0.026333287 0.033353433 0.024417538 0.02634713 0.0021555368 0.013378685 -0.025547352 -0.047494024 0.025458582 -0.008140026 0.060030084 -0.03277541 -0.050617695 -0.02032132 0.050620917 -0.021167435 0.01897786 -0.010379537 -0.012700467 0.013052719 -0.025909407 -0.027078994 -0.00494681 0.03845043 0.0028594183 0.022955561 -0.021412997 0.03748772 -0.07311922 -0.020516437 -0.013921303 -0.001773051 0.034571603 0.012973897 -0.0062945224 0.0023801029 0.04197096 -0.041682296 -0.06269816 0.038171463 0.020177199 -0.009541952 -0.0438742 0.019370936 0.065538764 0.00050338544 0.03711056 0.032429535 -0.0037954375 0.063213445 0.020113366 -0.024491342 0.03134817 -0.01350465 -0.001611506 0.048746556 -0.059729755 -0.016911454 -0.031446245 0.051043447 -0.03404393 -0.039522424 0.036894865 -0.046374343 0.038620465 -0.021180604 -0.0072121164 -0.020494755 0.010434587 -0.043158367 0.00066750206 -0.028074762 -0.010568589 -0.03934487 -0.02814391 0.067310974 0.010225252 -0.04383523 -0.010360229 0.022037854 0.0449602 -0.017477551 0.026721794 -0.03788743 0.030596858 0.019678324 0.059777662 0.06100581 -0.01198048 0.058019467 0.0003169802 0.054592136 -0.0027375936 -0.06806395 -0.045191616 0.025220457 0.07770214 0.04442076
a85 -0.017620882 0.0184309 0.025890304 0.007168617 0.019466644 -0.027876817 -0.039050397 0.021780917 -0.04179228 0.0028903354 0.015579682 0.055840097 0.03714095 0.03391385 -0.02734441 -0.023359675 -0.0062535694 -0.017993296 0.025848687 -0.006222101 -0.04960563 -0.028354263 0.06925887 -0.023581188 0.0059847943 0.006062971 0.034799773 0.033015102 -0.0047659185 0.023515796 0.006391526 0.02034153 0.020655831 0.031213425 0.0011176546 0.031530872 -0.03160189 -0.0031771194 -0.030135328 0.0279941 0.054398954 0.020800684 -0.0312536 0.024961943 0.014811506 0.03386089 -0.03659042 -0.024141457 -0.026726296 0.006351848 0.00062105013 -0.02181686 0.024311824 0.03845481 0.03954467 -0.016488817 0.016851565 -0.0029237615 -0.016897012 -0.06194114 0.029658273 0.0020029936 -0.005339919 0.0041145235 -0.016248949 -0.012693792 0.01662335 0.036116876 -0.020410087 -0.013322021 0.005799017 0.016374808 0.03638082 -0.023238894 -0.025784228 -0.028611977 -0.012240555 -0.025864104 -0.030896854 -0.020806653 -0.022584554 0.029392997 0.0073351003 0.0061757476 -0.005578422 0.0068967687 0.015936328 0.025189063 0.025165612 0.0067431256 0.02856197 0.024569761 0.02074328 0.016585777 0.057816513 0.032807715 -0.015930023 0.008099687 -0.033669066 -0.020904053 -0.04978972 -0.017886791 0.0013915026 -0.00094876066 0.0017006751 0.029459592
a92 0.010842964 0.014408009 0.008540705 -0.0036355965 0.05208397 0.02185615 -0.044259816 0.07220235 -0.061688777 0.011213493 0.014080079 0.0229303 0.039479084 0.011350812 -0.0048227636 -0.009623769 -0.022218773 0.005177525 0.021679731 0.00658979 0.014411323 -0.027635267 0.05148009 0.02654367 -0.039418556 -0.026755162 0.021620452 0.030263826 0.013549292 -0.019224348 0.0044316025 -0.013611105 0.008879006 0.03904392 0.035310846 0.030672006 -0.02335059 -0.043635156 -0.0028024886 0.01254208 0.0068131764 0.0014378657 -0.03320692 0.062500216 0.017221332 -0.02273431 -0.000698749 0.03131583 -0.031932876 -0.006682117 0.017290656 0.022783399 0.060731146 0.03105956 0.01833638 -0.019986205 0.013493767 0.0032408072 0.0031518238 -0.050820943 0.07399699 0.017044615 0.0037792688 0.017952597 0.017302798 0.020865144 0.034290522 0.045588966 -0.018230252 0.0031338176 0.010283229 -0.0138028795 0.014446605 -0.018213367 -0.046083182 -0.06819512 0.003735769 0.0058939476 -0.021549828 -0.019750895 -0.009499146 -0.014736173 -0.03101613 0.03178647 -0.018487243 0.005638182 0.03794273 0.023659851 -0.018223254 0.005842169 0.045336314 0.017227225 0.0028306707 0.016323825 0.069588244 -0.025332913 0.005232174 0.020570766 0.0046617193 -0.036079478 -0.064564325 -0.011925357 -0.027577547 0.012349362 0.019412618 0.030896178
a95 0.07003652 0.0014371988 -0.0034259472 0.044162594 0.037992183 -0.019321606 -0.0050702095 0.011016069 -0.0016255812 -0.005840827 0.042723 0.019414281 0.01765678 -0.011657214 -0.0042744996 0.0028417688 0.040675342 0.020895334 0.035931822 -0.004379078 -0.019347219 0.007570981 0.061159354 -0.010877204 -0.0023937523 -0.041124467 0.05668438 0.036086507 -0.028912496 -0.11302495 -0.02671648 -0.039461844 0.0071324827 0.01816001 0.012161842 0.021211803 -0.04435695 0.0056428015 0.00111813 -0.0056059146 0.043985497 0.0012992434 0.024851698 0.0545097 0.028167523 -0.0070327856 -0.03190621 0.0066359765 0.0069467914 0.031667486 0.010179102 -0.006577599 0.043259013 0.019829866 0.06052152 0.021642221 -0.025846116 -0.008755111 0.034106255 -0.04647969 0.064478286 0.006483566 -0.0031970819 0.0494568 0.006506581 0.0012614354 0.036425143 -0.0004069209 -0.021823613 -0.025852753 0.012208125 -0.056443263 -0.005840631 -0.04106135 -0.007927096 -0.006265783 -0.020136524 -0.0016341917 -0.004934049 0.036772892 -0.014124564 -0.044746548 -0.052388966 -0.018181974 0.008595888 -0.011102049 0.009288906 0.004678691 0.028553028 -0.014049057 0.048023023 0.038592093 0.00401524 0.051169395 0.0284951 0.004244909 0.0063366126 -0.015893852 -0.0012182889 0.023804713 0.022870397 -0.04024096 -0.04152435 0.012246274 0.03912042 0.0061497097
a101 0.03032295 0.008548987 0.020147765 0.025234072 0.038482517 -0.010435479 0.002682006 0.019387282 -0.051439088 0.011478823 0.03822727 0.026980128 0.035773456 0.030336583 -0.022822248 0.0171487 0.037636667 -0.024144636 0.017462088 0.0049263462 -0.019721601 -0.0064648166 0.06369331 0.0061030295 0.008459836 0.015311182 0.017836805 0.017604312 0.026780767 -0.019877942 0.0023968033 0.016028713 0.03425727 0.020635828 0.06734382 0.021638269 -0.03070359 -0.017723203 0.0028239796 0.030500554 0.032753237 -0.0009257179 -0.0068671275 0.0077237813 -0.015946945 -0.02822189 -0.031864114 0.010669297 -0.02698108 -0.0112365065 0.005217001 0.011311211 0.035604328 0.022448346 0.043746673 0.0377281 -0.0034258207 -0.022148691 -0.013482995 -0.02124416 0.06388019 0.005019933 -0.008862834 0.017353626 0.00975499 0.005689118 -0.022200283 0.06362106 -0.021327682 -0.01617029 -0.004099544 -0.026142536 0.026781179 0.003437683 -0.025432743 -0.03312376 -0.052775018 -0.0332252 -0.017533243 -0.02063185 0.0020967498 -0.026344648 -0.044303946 0.022601437 -0.0005438477 -0.0056752455 0.012697783 -0.003029869 0.017129665 -0.024365246 0.03815671 -0.0027214736 -0.03231994 0.0643848 0.052722 -0.029699994 -0.006315721 0.023334255 -0.007342261 0.014944936 -0.028439887 0.010622403 -0.018686246 0.033586696 0.048938002 0.012433113
a104 0.046505824 -0.021526573 0.026020624 0.012138888 0.016869646 -0.011169062 -0.009666662 0.040803995 -0.04056357 -0.02329963 -0.01663802 0.045216326 -0.032589655 0.023249004 -0.028296627 0.022757718 -0.009626689 7.578917e-05 0.02428019 0.068402864 0.02392988 0.0163904 0.06746183 -0.010954294 0.038199946 0.0049043996 0.07167362 -0.012664908 0.04374257 -0.022385469 -0.006145985 -0.011225946 -0.040193684 0.021222066 0.007762738 -0.021247787 -0.027741967 0.017297301 0.006300497 0.04001531 0.0057082446 0.0055274796 0.04171155 0.058063906 -0.062748164 0.040027484 -0.005417806 0.05016402 -0.025151622 -0.013728995 0.027073218 -0.0013849968 0.030348882 0.047176328 -0.0196167 0.028353073 -0.010444664 -0.06605071 -0.012179935 -0.05579125 -0.012974583 -0.013571642 -0.011353542 0.013846874 0.04816363 0.012975174 0.05812907 0.012787513 0.011716811 -0.023471335 0.06921361 -0.012519916 0.0417276 -0.038491197 0.012061395 -0.021529429 -0.035744224 -0.02541764 0.019771254 0.0042087156 0.057095744 -0.07893047 -0.003440585 0.024110407 0.024292681 -0.03152443 -0.017353157 0.023273997 -0.037723314 -0.020090347 0.08708656 0.009191656 -0.021660957 0.022845607 0.060024343 -0.027383732 0.009843137 0.017162062 0.012027978 -0.028818188 0.032228176 0.021788374 0.038379397 0.04309636 0.065277174 0.038044013
a105 0.005268963 -0.008255413 0.026068006 0.014004253 0.032455195 -0.023599906 -7.648091e-05 -0.015818413 -0.037561074 0.05262596 -0.00015738793 0.034785885 0.021761525 0.021659084 -0.0032096803 0.01252546 0.030884994 -0.0051339767 0.008057612 -0.01820514 -0.028531492 -0.0004297709 0.03717745 0.004625586 -0.008371834 -0.017888715 0.0101576755 0.019581955 -0.0048795436 -0.025196541 -0.017421987 -0.0019599474 0.012726559 0.020378467 0.008369294 0.032303702 -0.032261673 -0.0058216453 -0.02159394 0.009139493 0.029924314 -0.022215243 0.015968632 0.02593587 0.026245274 -0.030133348 -0.023173446 0.007575923 -0.013646941 -0.023556273 -0.026400477 -0.009638351 -0.0064876736 0.0043393495 0.042662308 0.03586804 -0.008645802 0.008576915 0.0113360025 -0.025372878 0.04512988 0.028883968 0.0048991693 0.020762824 -0.0033426078 -0.051567595 0.0044328296 0.040921338 -0.01917767 -0.022083761 0.015681114 -0.018383868 0.00061827525 -0.011812371 -0.0066074505 -0.022442551 -0.016086366 -0.032971293 0.017832952 0.0052627777 0.0064176302 -0.014517475 -0.012471544 -0.015370284 0.018484967 0.005427319 -0.019874254 0.015598575 -0.0063256174 -0.023159528 0.038226254 -0.0060610548 -0.0046394 0.012903905 0.047252283 -0.022758815 -0.017771991 0.018082757 0.009635441 -0.0054800524 -0.018267501 -0.032956917 -0.025358416 0.007965851 0.017406117 -0.0036151123
a109 0.015592028 0.0077119768 -0.0010372452 0.019062808 0.025182566 -0.046802968 -0.012183478 0.013765419 -0.0535983 0.043040246 -0.0148308985 0.039977316 0.025195587 0.0040200804 0.0055558 -0.017450742 0.04157952 -0.0054612993 0.022457357 0.010493018 -0.0322363 -0.027621226 0.04262156 0.014667021 -0.017423324 -0.009101149 0.001340087 0.015571348 -0.0055198334 -0.0056657954 -0.029893389 -0.013527147 0.015927764 0.06607495 0.00017579924 0.060389347 -0.02324561 -0.01460105 -0.03282991 0.0027646031 0.040764026 0.0032418482 -0.0030060112 0.05856987 0.018328805 -0.016426332 -0.0020680148 0.00997176 0.001126254 -0.0068177665 0.0012858184 -0.030348869 -0.010355812 0.037528712 0.039957486 0.0076462766 -0.014914541 -0.004592357 0.0032434613 -0.04247627 0.06603012 0.043337658 -0.007224479 0.032453664 0.0041047246 -0.008653397 0.02501516 0.070662454 -0.023726875 0.02895987 0.036253974 -0.022859728 0.044479113 -0.026446473 -0.015047712 -0.039715387 -0.00090751797 -0.02280971 -0.0044489 -0.007360666 0.0063807964 -0.014694914 -0.021597484 0.026924329 0.007136565 -0.003927567 -0.029998183 0.010102643 -0.020332776 -0.024303254 0.044977807 0.015911978 -0.013379509 0.032286137 0.07099087 0.0012824563 -0.031239353 0.021234596 0.021930862 -0.03634361 -0.0415167 -0.019282416 -0.008948735 0.002406031 0.023791961 0.020123435
a113 0.024406096 -0.020417316 -0.025201047 0.04560682 0.01712981 0.022303287 -0.008698167 -4.051905e-05 -0.037993062 -0.0014438964 0.032035623 0.06402731 0.0036068074 -0.020919356 -0.021537047 -0.026510062 -0.0043727676 -0.010923044 0.027644165 -0.025206668 -0.021689076 -0.023952682 0.03378959 -0.0038982788 0.0014255233 -0.02081904 0.057263426 0.016558308 -0.011435745 -0.034923203 -0.006092292 0.00022751512 -0.0037673377 0.036678232 -0.0014486834 0.043480486 -0.03984398 -0.018897444 0.008849598 0.010570649 0.035328243 0.024182808 -0.03700396 0.0060225213 0.00028241612 -0.0017110221 -0.05452881 0.007004944 -0.007168345 0.034433685 0.008557491 -0.029163187 0.035031624 0.039333884 0.04258574 -0.017839875 -0.00550316 -0.009867646 0.011213686 -0.06320931 0.03910461 0.017481638 -0.00066731777 0.038575355 -0.010200217 -0.002765201 0.021788498 0.020453997 -0.019195614 -0.03337626 0.03773486 -0.047513172 -0.014366921 -0.041772336 -0.025913686 -0.02543699 -0.015211927 -0.03744152 0.013234364 0.020052489 -0.019336719 -0.0058127046 0.0070004296 -0.02570067 0.0055889105 -0.00056636607 -0.011630091 -0.0007946342 0.023526467 0.010246532 0.051708367 0.026008494 0.025466673 0.08290167 0.012775848 0.03506893 -0.02709833 -0.017516412 -0.018556427 -0.01143508 -0.009899976 0.018954262 -0.06451917 0.020685969 0.040227238 0.01765121
a117 6.791577e-05 -0.0051991334 0.023223829 0.027331557 0.06020975 -0.019312888 -0.02223983 0.017623052 -0.009269651 0.029704703 0.013326958 0.04353367 -0.016906185 0.019454464 -0.011056631 -0.028940573 -0.008993315 -0.014475865 0.04776104 -0.017618362 -0.034496706 -0.015244526 0.039632224 -0.046183497 -0.015006869 0.0019049069 0.028861925 -0.003429729 0.009455802 0.008818285 -0.0016065147 0.026711307 -0.0028343787 0.0106540155 -0.024272889 0.035084847 -0.032052282 -0.033982452 -0.03536931 0.009771372 0.020733356 0.025185946 -0.025319237 0.01565256 0.011058129 -0.00022363849 -0.04064951 0.027676538 0.00877762 0.0012100674 -0.014564755 0.005845098 0.02912822 0.014091865 0.029563446 0.0013426254 0.007958781 0.009471567 0.012005877 -0.022322439 0.014289455 -0.01295403 0.014270218 0.036644943 -0.0025429372 -0.0039298125 0.003173736 0.029234603 -0.0045594024 -0.038711566 0.049756162 -0.036289517 -0.0013500825 -0.016796822 -0.031802956 -0.040026877 0.014224327 -0.030673081 -0.002863753 -0.01712494 0.0025542844 -0.0103312675 0.0022622515 0.019658694 -0.010237013 -0.012008542 0.0046581565 0.028365862 0.0082841525 0.00751232 0.04295553 -0.009651956 0.017659254 -0.0031803157 0.054185912 0.025934793 -0.010820951 0.022476044 -0.015232492 0.015376769 -0.0077739544 -0.035333868 0.011944121 0.027307322 0.031550027 0.016408449
a118 0.009249911 0.010295648 0.03100761 0.023108311 0.0155527275 -0.007663737 -0.0359297 0.0258841 0.015248407 -0.008829875 0.0321659 0.05875136 0.0049056015 0.029202811 -0.007757364 0.031733483 0.0034335917 -0.027643964 0.038886067 0.009315831 -0.006122725 0.02336752 0.02894016 -0.032607578 -0.011108767 -0.008037581 0.053900026 -0.018757366 0.019042304 0.0014857021 0.016665677 0.0031126447 -0.019987356 -0.009814378 0.0034758546 0.009050768 -0.04241379 -0.010733472 -0.015186341 0.034617916 0.04927583 0.027837057 0.013290253 0.023900475 -0.031007636 -0.011562408 -0.033457562 0.021310363 -0.0050915405 -0.0132259475 -0.022272738 0.03777644 0.037987933 0.007062102 0.00844496 0.0050666053 0.006759823 -0.017773952 0.026336983 -0.004937281 0.035853785 -0.006665066 -0.030681368 0.037436716 0.010422392 -0.028954023 0.042050857 0.008461865 0.00103777 -0.022198154 0.03135004 -0.012867518 0.009157078 -0.061422803 -0.0222864 -0.04475292 0.0004922007 -0.018980004 0.010429178 0.020573054 0.024687301 0.0028061299 -0.009898532 0.016937869 -0.006683674 0.0046869167 0.015031884 0.044821784 -0.0017802622 -0.024016213 0.053292193 0.018441867 -0.0012370255 -0.006438289 0.060162608 -0.01682128 -0.019770924 0.01772695 -0.018607708 0.032083586 0.012706099 -0.024287261 0.007945015 0.010610025 0.059105903 0.016901843
a129 0.015458884 0.014612992 0.03372969 0.041439146 0.030614614 0.033280108 -0.011701306 0.03841114 0.017685918 -0.030951135 0.0016120996 0.05117339 0.016571825 -0.023748623 -0.012811686 -0.014853893 -0.0038695661 -0.021527018 0.037656277 -0.020969119 0.022187112 -0.018779952 -0.0044207834 0.008628971 -0.041420016 -0.040286332 0.03805219 0.015551819 0.020650117 -0.033656728 -0.025274243 -0.036446027 -0.030337581 0.0018877424 -0.011672056 -0.00859683 -0.040596455 -0.017737875 0.013098373 -0.010221805 0.021909129 -0.0010249447 -0.046273015 0.028161222 0.025027517 -0.013856226 -0.04392092 0.02760349 0.0146994945 0.027833462 -0.025588006 0.00013068318 0.056442823 0.053054057 0.009553468 -0.029153084 -0.0071266247 -0.005914247 -0.01275138 -0.0150252115 0.02867357 0.031414203 -0.027891636 0.04760461 -0.01604268 -0.037228003 0.055189867 0.010600651 0.0045676893 -0.06787989 0.024244966 -0.038959138 -0.002209263 -0.021221926 0.0029399742 -0.036415085 -0.016506504 -0.010616127 0.029104464 0.022718217 -0.021397388 -0.018270986 0.0005135536 -0.0061956216 0.013804833 0.01538724 -0.015417032 0.03349757 0.035742942 -0.023619127 0.03360929 0.028422335 0.0009322753 0.026509002 0.046503466 0.011013385 0.00089656375 0.018673778 -0.0065265405 -0.012712646 -0.014562183 0.019558705 -0.040649727 0.059783168 0.09494142 -0.0005722167
a131 -0.013020379 -0.0009036558 -0.0059497925 0.0031508077 0.040762514 -0.005566651 -0.035645545 0.027366951 -0.07288013 -0.014332978 0.03246496 0.058255985 0.016791003 0.019133994 -0.0062795216 -0.01260405 0.011048531 0.014234766 -0.0016105622 -0.010242863 -0.033694703 -0.04347329 0.08336213 0.009732676 0.020972019 -0.028382251 0.02007882 0.055490788 -0.010308916 -0.046223685 0.004147388 0.007332084 0.025964856 0.057400472 0.0023646434 0.04177817 -0.025996272 -0.0049819173 -0.025414295 0.049842767 0.05169731 0.015631814 -0.04150454 0.043872062 0.043001816 -0.0020995885 -0.044736993 0.0146945445 -0.0420315 0.04467057 0.021792408 -0.040286545 0.02699461 0.0241364 0.03471764 -0.034444276 0.012314029 0.016338646 0.027143715 -0.06994422 0.031103155 0.0011403058 0.010994022 0.020340765 -0.002820105 0.0006145891 -0.0038779776 0.028018469 -0.011676965 -0.023241892 0.0020539286 0.01561145 -0.0051364936 -0.04665526 -0.017724976 -0.003408013 -0.029739946 0.022217546 -0.023945022 -0.019462856 -0.025136089 0.010801354 -0.022151958 0.0007882314 -0.0010910048 0.0044754706 0.043225694 0.017656926 0.029185932 0.016129162 0.024517301 0.023868687 0.028118093 0.044886556 0.03287537 0.03931774 -0.022450078 -0.006841126 -0.037578 -0.016420376 -0.05806303 -0.04038824 0.0026146136 0.017695813 0.007895705 0.035063248
a139 0.026457617 -0.0028351159 0.026540536 0.012226085 0.046098955 -0.015052866 -0.006244728 0.026569508 -0.023356697 0.0033591967 -0.009353494 0.023314165 0.05969954 0.03341055 0.036639273 0.005919693 -0.017821113 -0.022659928 0.031342242 -0.015056029 -0.0040722135 -0.011938476 0.05270902 -0.03938935 -0.01025607 -0.04682947 0.026451446 0.011119529 -0.0039958293 -0.02764458 0.028899971 0.015713925 -0.012306615 0.029066814 0.05367779 0.029900167 -0.0644285 -0.009014926 -0.010817494 0.0022043143 0.024697986 -0.01990177 0.014481418 0.02014703 0.0036350526 -0.057755113 -0.03008218 0.011798458 0.0012571234 -0.017534833 -0.018253451 -0.006160565 0.034414954 0.0052583776 0.03096458 0.034559377 -0.023975007 -0.031490654 0.044517055 -0.017698955 0.04553669 0.016086763 -0.002797531 0.016684622 0.011088026 -0.013112378 0.007942227 0.03933073 -0.022845047 0.009272893 0.0151471635 -0.03336739 0.027609328 -0.03859809 -0.013488127 0.008990364 0.019530077 -0.019568479 0.022135494 0.020261131 0.010127423 -0.021145197 -0.021447258 -0.0039113956 0.024622262 -0.0052786143 -0.011658129 0.022585042 -0.021523714 -0.027642893 0.047837943 0.008770128 0.04664742 0.0019690748 0.06466724 -0.004882439 -0.031028714 0.009533712 0.008824123 0.007527046 -0.013172552 -0.045621477 -0.020939969 0.019647434 0.021982765 0.033719007
a145 0.00027136132 0.029251857 0.012579117 0.040170923 0.0019855937 -0.012657667 -0.018609755 0.01574799 0.026392128 0.02371987 -0.013916038 0.07258412 -0.031564094 0.028723752 -0.0032143435 -0.03393989 -0.018733563 -0.024736784 0.04283605 0.027496127 0.00014872104 0.01794944 0.058236748 -0.02938005 -0.032807775 -0.025585212 0.052469514 0.017110268 0.009497072 0.020923106 -0.008619044 0.059240308 -0.013279661 -0.009948678 -0.030849539 -0.0006197933 -0.009099419 -0.0066983867 -0.020145694 0.016884353 0.0526847 0.011777977 -0.012420459 0.014811872 0.01030676 -0.04146592 -0.03156101 0.027463583 -0.016745206 -0.005694919 -0.015184663 -0.015958535 0.01961972 -0.007839661 0.0330216 -0.011093935 0.014580081 0.0034005428 0.0062173735 0.0026107668 0.030340014 -0.004422635 -0.0006383583 0.042377166 -0.024311367 -0.013685919 -0.00030553667 0.028495394 0.017683936 -0.020266134 0.031847786 -0.014538018 0.011053558 -0.03809478 -0.011452425 -0.032747943 -0.0085940985 -0.004001338 0.025597036 -0.025211003 0.030777348 -0.013178966 0.022475354 0.023029815 0.020456692 -0.0091878595 -0.010821471 0.040568955 -0.03794431 0.0032838015 0.06477977 -0.0052961987 -0.010141153 -0.015606314 0.053913463 0.020089665 -0.025063913 0.04536958 -0.02411928 0.0012962669 -0.005854738 -0.030263226 0.02099784 0.022004414 0.054715592 0.040312763
a147 0.007838894 -0.015897635 -0.02101483 0.037639283 0.039838076 -0.0026282873 -0.017923187 0.02479163 -0.016385907 -0.014789876 0.024649197 0.061798543 0.027286917 0.014287317 0.011394032 0.012291167 0.025149714 0.003949209 -0.0027788226 -0.0058328295 -0.011737784 -0.02207182 0.041699048 -0.03058052 -0.016484004 -0.014484349 0.046567626 0.0014956584 0.0039690435 -0.037920132 0.006039261 -0.031982236 0.015178636 0.028583143 0.008488495 0.01720162 -0.04217303 0.0056415256 -0.01611017 0.0277064 -0.003641718 0.014595959 -0.008029291 0.032292828 -0.0006513216 -0.007449725 -0.02653284 0.0076913116 -0.012244187 0.01415189 0.005424835 0.011884701 0.03202981 0.018871693 0.03288726 -0.017052239 -0.0024952348 -0.03599175 0.01987716 -0.030566089 0.031231223 0.02698946 0.0052154493 0.03197658 -0.0028951191 -0.020692121 0.015325649 -0.0076820627 0.012637836 -0.058505595 0.027679743 -0.04848058 -0.014861047 -0.046816476 -0.029481933 -0.026002532 -0.049948677 -0.005173646 0.031875264 0.012319222 -0.032654054 -0.032135494 -0.0027539395 -0.002073749 -0.0070499238 -0.014807466 0.03063727 0.0012520328 0.0076308018 -0.028469244 0.05598507 0.028533105 -0.0048731733 0.06787491 0.0333883 0.0075563923 -0.022666948 -0.0067176595 0.029117186 -0.015292726 0.0023260545 0.018822702 -0.002679933 0.0026614107 0.016780792 0.015018016
a152 -0.009977665 -0.0004598815 0.00934665 0.031027978 0.031816803 -0.011281852 0.009803401 0.043357812 -0.018929154 0.0050914437 0.013389869 0.041446634 0.025660474 0.0383929 0.0012963843 -0.028163541 -0.025239391 -0.009644082 0.011990543 -0.001941096 -0.0080430405 -0.006397357 0.012043977 -0.039456952 -0.02640351 -0.009509452 0.028101353 0.020382617 0.020632973 -0.0064628874 0.020143814 0.0072979783 0.003176991 0.012003816 0.0059300475 0.018196702 -0.035078403 -0.032372236 -0.014436157 -0.0017496955 0.016000092 0.020951409 -0.037356585 0.006369343 -0.004520378 -0.014600124 -0.028086152 0.010197073 0.00011632498 0.0038608648 -0.0037004072 -0.023511637 0.061781313 0.041669518 0.046270803 -0.001884386 -0.04016281 -0.0031122398 -0.005884802 -0.02641101 0.04438523 0.004454337 0.009534482 6.045401e-05 -0.017888661 -0.011940074 0.0054850485 0.033339337 -0.01467464 -0.02883413 0.011729533 -0.039427064 0.017230222 -0.0077469014 -0.027251514 -0.015189707 -0.010981717 -0.036908656 0.0038425317 -0.02174259 -0.0036136545 1.3317913e-06 -0.0090952255 -0.014912972 0.026933033 -0.0013042646 0.012380026 -0.0029393919 -0.02052923 0.0012028636 0.046337053 0.006827947 0.00037216954 0.018517137 0.069902584 0.025460325 -0.013294366 0.024281112 -0.007569309 0.0010106573 0.011695383 -0.014225531 -0.0068131182 0.007421855 0.024219578 0.010105833
a157 0.02405737 -0.015910579 -0.030179255 0.021857455 0.03370036 0.013768213 -0.025138063 0.016920168 -0.02494907 -0.020486642 0.033053465 0.06325183 0.002002884 0.0012945933 -0.018843016 0.016998772 0.018526338 0.021192133 0.0074872617 0.005633423 -0.017050255 -0.021587735 0.050738055 -0.014475154 -0.0027023181 -0.021482559 0.061348446 0.004279284 -0.0055453815 -0.052587695 0.0009910702 -0.036280297 0.011597893 0.009938602 -0.003436057 0.020810783 -0.041951522 0.00547567 0.001133545 0.0532739 -0.020820737 0.016674384 -0.0017920136 0.04632634 -0.0025104266 -0.008202944 -0.022906125 0.016118443 -0.02422636 0.019085612 0.009521998 0.009131728 0.04178503 0.037280835 0.013865085 0.0011841282 0.012863153 -0.03369323 -0.00402138 -0.041607223 0.013298205 0.0135209095 0.009513972 0.037124664 0.0012350775 0.003732142 0.021013282 -0.016734881 0.0010927343 -0.0343952 0.027813427 -0.03959161 -0.007853964 -0.06503989 -0.008300964 -0.029498925 -0.045901977 -0.014679046 0.038473215 0.02130823 -0.020995267 -0.051834814 -0.008745991 -0.016175225 0.008336236 -0.0074937185 0.018552039 0.007602111 0.0040982547 -0.01947133 0.058380127 0.037718453 -0.005322599 0.07811588 0.039640784 0.015531819 -0.010469716 -0.033665452 0.01775666 -0.0010338482 0.013337795 0.0131241735 -0.038866833 0.016216531 0.016817834 0.028990248
a158 -0.0063672718 -0.009517441 0.03275811 0.0032235142 0.03361288 -0.0019024704 -0.018735852 0.041660856 -0.053236663 0.024733376 0.011960581 0.054671004 0.059010863 0.04078646 -0.012159373 0.008516137 -0.009585513 -0.027806748 0.02063295 -0.023968305 -0.013428255 -0.021086698 0.05575901 -0.034247696 0.0036840625 -0.025058262 0.031854708 0.014617759 0.005023721 -0.0068610827 0.013707647 -0.011062483 0.0059751607 0.02410107 0.026051542 0.01856035 -0.019384362 -0.022176402 -0.019225132 0.012655248 0.0305536 -0.0076732263 -0.021002544 0.015272396 -0.0113476645 -0.0067125196 -0.023552489 0.018777438 -0.019135453 -0.0080455 3.672857e-05 0.008067413 0.027054548 0.026278874 0.022945428 0.015536752 -0.022487078 -0.03671105 0.013375876 -0.035161592 0.05049282 0.015179817 0.027332822 0.026898617 -0.00032223994 -0.021828312 0.023553137 0.043517936 -0.0132843945 -0.009426836 0.009233014 -0.023527075 0.030195288 -0.013346962 -0.022359695 -0.046317734 -0.023489546 -0.039924033 -0.0070227915 0.01727292 -0.009443231 -0.01028195 -0.016101528 0.00040792534 -0.014440585 -0.0069706272 0.010885264 0.024640422 0.012969224 0.00012141373 0.038532455 0.0034034448 0.017995425 0.038296502 0.05629976 -0.02259596 -0.015912559 0.0074974042 0.005229441 -0.0007451251 -0.027637765 -0.016423916 -0.013928859 -0.008737644 0.013543139 0.012298382
a159 -0.0071520936 0.0027981047 0.03625054 -0.023068355 0.051769443 0.021237405 -0.019312097 0.04141418 -0.0048742527 0.0055090142 0.018851418 0.06873499 0.05935251 0.05443765 -0.0052561373 -0.023651596 0.016025012 0.00482747 0.024702221 -0.0041250708 -0.014345425 -0.011242248 0.033752117 -0.004661305 0.004259508 -0.010448945 0.024452135 -0.011416433 0.022799175 -0.026264478 0.036766052 0.009279445 0.040077277 -0.008282367 0.013488401 0.0020320062 -0.033203207 -0.034415796 -0.008675133 0.02008652 -0.0011070953 0.00930054 -0.019119104 0.015560403 -0.037998173 -0.017000183 -0.009601517 0.012018096 -0.04342125 -0.02482443 0.012976181 0.011716053 0.03558334 0.04174623 0.046035573 -0.009034254 -0.019769141 -0.02517801 0.009964579 0.0013566352 0.0451924 0.008314105 0.0036203093 -0.009303989 0.011241255 0.0037354603 0.013970468 0.013068587 -0.018684883 -0.02954735 0.0244767 -0.06545442 0.016641445 -0.026679467 -0.05636391 -0.06075801 -0.0060174214 -0.058215823 0.0010346135 0.025005877 0.007630285 -0.016895834 -0.034921497 -0.002982246 -0.010867484 -0.002180894 0.036351915 0.023555273 -0.010256711 0.0050583836 0.03697928 0.014590763 -0.007727056 0.046251506 0.095028535 -0.0069352402 -0.01786948 -0.024979427 -0.0048805135 0.006717397 0.017304182 -0.0024058004 -0.05910898 0.0082778055 0.02077814 0.0022542737
a161 -0.0002040593 -0.010299963 -0.04949912 0.0147603415 0.031017683 0.022534043 -0.014905222 -0.008805443 -0.03830374 0.0091021955 0.037240077 0.05591108 0.008169076 -0.010907197 -0.020643886 0.018526465 0.016091108 -0.0022151065 0.028797908 -0.030006219 -0.0011845827 -0.012558661 0.04775379 -0.025442624 -0.020168766 -0.033285685 0.054132678 0.012257421 0.011205496 -0.035068393 0.0101512065 0.008127233 0.004387661 0.0049521374 0.03093836 0.033155218 -0.021392046 0.008508269 -0.0038789073 -0.0057755467 0.002821806 0.007111464 -0.031974692 0.010676873 0.0161575 -0.013410515 -0.05681801 0.036146086 -0.0049853073 0.016945599 0.00021789316 -0.0074519645 0.036704604 0.022238286 0.0259355 -0.015401489 -0.025771502 -0.023367919 0.040782876 -0.0437973 0.027990676 0.035313178 0.03375215 0.02838881 0.021405319 -0.0046080146 0.015518606 0.016169436 -0.0075626615 -0.026416376 0.022468355 -0.029956233 -0.035636287 -0.016613318 -0.021796301 -0.044119492 -0.0453811 -0.023418758 0.012410872 0.03497836 -0.008456185 -0.02303581 -0.011092003 -0.026974065 0.006441054 -0.019687034 0.021845497 0.008665064 0.01223049 -0.010467376 0.047232725 0.008131718 0.015722131 0.07343966 -0.00085593946 -0.01853051 0.012164103 -0.020547789 -0.01030282 -0.0020861588 -0.026908759 -0.0019299188 -0.033828076 0.021626431 0.018673614 -0.012484485
a162 0.04054748 0.007683145 0.03992122 0.03716912 0.016161058 0.0052643297 -0.01551268 0.05716521 0.011288842 0.013044883 -0.017395783 0.08180102 -0.020338617 -0.010619923 -0.029222187 0.006748557 0.014465157 -0.021659784 0.039133497 -0.02090696 0.0047477335 -0.018607046 0.036522657 -0.03899768 0.017096411 -0.022531364 0.060041346 0.027797528 -0.013040137 0.0090604955 -0.033089057 0.004603304 -0.038617693 0.012169084 0.0058177877 -0.0015797913 -0.04918674 -0.031231984 -0.020735787 -0.013282618 0.070345506 0.008233074 -0.024878908 0.06369649 0.0034231627 0.023566822 -0.0681999 0.036169007 -0.014105507 0.017392218 -0.043270893 0.022490654 0.048894927 0.013102642 0.005829743 -0.007519723 -0.02167657 0.01078571 0.01095254 -0.052420508 0.052299194 0.0035977531 -0.03269179 0.051210232 -0.010541599 -0.027758412 0.038908012 0.039416697 -0.026209021 -0.055160094 0.03634633 -0.07010819 -0.005605175 -0.009708748 -0.02343332 -0.0682719 0.010177786 -0.052534536 -0.0039260634 0.043318328 0.010790298 -0.0050935335 -0.021319706 0.0066960105 0.005878728 0.012593237 0.0052355537 0.067306146 -0.0063821496 -0.0023272457 0.06796994 -0.00822202 0.014034931 0.03831216 0.03726284 -0.015380811 -0.013981271 0.056690916 -0.0010373957 -0.02136257 -0.030088086 0.017333884 -0.0081977155 0.015015446 0.048328742 -0.00028881803
a164 0.0015397891 -0.014155964 0.02366167 0.028104164 0.029506687 -0.012477312 -0.013683097 0.019858906 -0.023060568 0.00568603 0.010188425 0.035627637 0.014784667 0.017740933 -0.026375135 -0.027784316 0.007070987 0.016068423 0.038647972 -0.011438905 -0.025075685 0.01343733 0.04267772 -0.0059082755 -0.0064747185 0.005555555 0.046585567 0.018510072 0.016845997 0.008512437 0.0061129294 0.019612037 0.007915779 -0.005602395 -0.014481851 0.011222348 -0.0245972 -0.042484373 -0.011662191 -0.0037378287 0.008777035 0.034848228 -0.043646336 0.016473863 -0.011636259 -0.011755545 -0.024874568 0.017087126 0.014046328 -0.0028588388 -0.0010571007 -0.03209728 0.06276098 0.04354931 0.03362111 0.018870238 -0.015299063 -0.022083607 -0.029515125 -0.006218674 0.0371945 -0.027972888 0.0036638547 -0.002133185 -0.01737278 -0.00571849 -0.0012624792 0.039457295 -0.0021261359 -0.010996932 0.005523781 -0.04307424 0.03448215 0.006853927 -0.018757612 -0.031026691 -0.025942974 -0.054018274 -0.008386635 6.85344e-05 -0.008346608 -0.010717619 -0.008992959 -0.015333561 0.029971961 0.025633555 -0.010894289 0.031408478 0.0121134315 0.0035365429 0.04158505 0.026311394 -0.035783175 0.033458196 0.086151324 0.026021086 -0.0058389455 0.039934278 -0.021171473 0.023764245 -0.027030462 0.015486922 0.0010825144 0.0066848295 0.0420719 0.019306723
a175 0.0017887447 -0.0029684054 0.01318832 0.05761127 0.010619256 -0.009899296 -0.014773491 0.034405716 -0.03970383 -0.039529383 0.016133172 0.08446697 0.030349456 0.009749876 0.034105554 0.03600038 0.0296578 -0.0046687666 -0.009720964 -0.00540186 -0.014905739 -0.04648534 0.020154698 -0.03274234 -0.012963164 -0.046036214 0.043159634 -0.0024166545 0.029327331 -0.006475822 -0.00715354 -0.008865778 0.032304745 0.027227893 0.044926964 0.012274343 -0.06613418 -0.007360954 -0.03993271 0.026656289 0.006431935 0.0026791077 0.00024782866 0.04128844 0.010318356 -0.033059604 -0.020662982 0.016037121 0.00027181022 -0.0038742628 0.011697616 -0.024262369 0.04181775 0.056336813 0.01094454 -0.020467563 -0.014609349 -0.03427834 -0.00022350065 -0.01388498 0.008401118 0.025894914 -0.013736428 0.04454629 0.00801843 -0.017244894 0.0075305747 0.021412041 -0.0108829215 -0.04695314 0.03862279 -0.059350885 0.013774732 -0.050764542 -0.03365521 0.018074725 -0.0065783164 -0.0047167614 0.004704916 -0.0014661252 0.008237205 -0.021762833 0.0027047005 0.016597146 0.0026742262 0.025086414 0.0080752 0.0035924558 0.00073236227 -0.043849345 0.05519096 0.036057003 -0.03542732 0.05375319 0.0267518 -0.010495665 -0.043354835 -0.00702604 0.04580334 -0.026674904 0.017204937 -0.006236542 0.020274874 0.020725694 0.021204453 0.008207124
a176 -0.0044526597 -0.007524181 -0.022568623 0.038988575 0.017952712 -0.012940714 0.0024195244 0.023625124 -0.025485631 -0.001972137 0.0015680199 0.07784292 -0.0030241003 0.0005858997 0.024802923 0.00072306395 0.011004231 -0.017369246 -0.008574996 -0.037718274 -0.0023688395 -0.039577264 -0.005221462 -0.019662548 0.014149867 -0.054381922 0.045544732 -0.0123678185 0.028476879 0.014876528 0.0037640154 -0.00851733 0.015583931 0.0020378064 0.0024912572 0.024447527 -0.059476722 0.0033717342 -0.03318468 0.023073971 0.010067484 0.007147736 -0.019775677 0.021496307 0.036315892 -0.02301605 -0.03386582 0.009906175 -0.037443824 -0.0011721551 -0.00843433 -0.017901557 0.024351113 0.008790259 0.036273614 0.01683979 -0.04337643 0.01712499 0.021582816 -0.045973003 -0.02080347 0.029445654 0.00858221 0.027299777 -0.031286687 -0.02779167 0.012318531 0.0030767508 -0.0076109413 -0.05123964 0.054711577 -0.067377046 -0.012062514 -0.064389005 -0.030497778 -0.03391083 -0.017371474 -0.029567093 0.024523994 0.027144061 -0.0048557064 -0.044997998 -0.032883182 0.015727311 0.017657757 0.0047291894 0.0038445704 0.0036505647 -0.040366992 -0.058435775 0.039278552 0.018902922 -0.027262557 0.092368364 0.023841824 0.021657817 -0.037082795 0.014010992 0.053376228 -0.012789753 0.002754873 -0.010235312 -0.02109985 -0.0074607767 0.038317777 0.0011083991
a179 0.03472115 0.020227926 0.010490125 0.027658159 0.037309736 0.024892729 -0.02239258 0.053343922 -0.056671046 0.011383999 0.014568201 0.07966997 0.0060348664 0.01442355 -0.020175897 0.041640542 0.0011427039 -0.01841956 0.05476765 -0.022584131 0.0004307218 -0.007898361 -0.009717129 -0.015343115 -0.016766647 -0.04124302 0.038358297 0.02670709 0.029062845 -0.02988185 -0.015739402 -0.0132456245 -0.058888115 0.011949698 0.025482884 -0.0013770908 -0.028427517 -0.015584164 0.00947016 -0.008668975 0.019557133 -0.001856349 0.018939855 0.037616953 0.035705302 -0.011510786 -0.049188063 0.056283478 0.01573383 0.01723042 -0.0070734113 0.034350492 0.020089652 0.03983689 -0.039869417 -0.048059113 -0.042263065 -0.01444552 0.012236046 -0.012514517 0.03208574 -0.009997474 -0.025129622 0.062155213 0.022504497 0.0018395651 0.06826039 0.033544526 -0.026894856 -0.046820547 0.06649205 -0.034618687 0.01400663 -0.05278192 -0.03163117 -0.037265733 0.031793926 0.011204397 0.023287985 0.029683461 0.051397115 -0.039897047 -0.0382044 0.04146991 -0.031017931 -0.0050559537 -0.023229063 0.06344828 -0.0008074315 -0.024075586 0.036062736 0.009969128 0.015849575 0.010718365 0.036373004 -0.017703889 -0.00060687773 0.023516608 0.002456323 0.01465209 0.02853737 -0.08375018 -0.00010900665 0.084271125 0.010494102 -0.009070428
a189 0.012449221 0.0149499765 0.043610204 0.030223675 0.040407956 -0.0047100857 -0.026839133 0.05434416 0.009253921 -0.0035708975 -0.029603193 0.038070716 0.021227024 0.027529262 0.024042247 -0.050440118 -0.028555965 -0.03390614 0.044608053 -9.331852e-06 0.011430234 0.005945868 0.061118715 -0.04990815 -0.037906244 -0.015154762 0.0288535 0.012412855 0.031951368 -0.00078991055 0.015315817 0.04316725 0.003658926 0.022700239 0.00069436245 -0.021658655 -0.02443358 -0.032647733 -0.008091923 0.0020482326 0.028711231 0.027441612 -0.032693733 0.012173631 0.019219339 -0.03339722 -0.01757513 0.015722321 -0.023331668 -0.013724097 -0.0030822558 0.012365243 0.03611362 -0.001633497 0.025407273 -0.028990105 -0.00053842925 -0.04151732 0.012983869 -0.010480029 0.022106672 -0.010134675 0.005832142 0.015239341 0.00779255 -0.014630156 0.015110618 0.020732028 0.01177298 -0.04429146 0.032993823 -0.050939374 -0.0002188962 -0.02174767 -0.038675718 -0.034894258 0.011376285 -0.009037854 0.0034012161 -0.026726924 0.023239356 -0.0066612083 0.009108255 0.008477928 -0.0112770405 0.0014038952 0.007908559 0.032583803 -0.00841078 0.0024235593 0.07576031 0.015494697 0.010591164 0.0032508299 0.065007575 0.004892406 -0.029123755 0.024016052 -0.0005117506 -0.017645804 -0.0074440697 -0.010603007 0.026365822 0.020479355 0.058191247 0.028156854
a194 0.047863744 -0.030179959 0.031913012 0.01810979 0.06848131 -0.045518324 0.0052110096 0.04892383 -0.06820848 -0.018238015 -0.036503147 0.022448132 0.034370843 0.04253782 0.02883764 0.020379653 -0.0035670786 -0.0030546496 0.019182833 -0.036527213 -0.031485703 -0.0010566749 0.10196049 -0.014594704 -0.011867978 -0.0114637595 0.0346014 -0.00027188193 -0.020002112 -0.057999264 -0.039785124 0.0015801038 -0.037675496 0.008531993 0.038796183 0.042201012 -0.037360158 -0.0062416364 -0.01916381 -0.048319817 0.008179834 0.0020510047 0.07029335 0.094986506 0.020083245 -0.0006595813 -0.044542164 0.049271338 -0.017119527 -0.019606229 -0.041240796 0.014219241 -0.078032315 0.087527595 -0.019457577 0.05369751 -0.044549122 0.0053943284 0.083214425 -0.054337647 0.04362289 0.02807337 -0.012750918 0.044220977 0.08629553 0.012679061 0.035802517 0.011343978 0.0066582775 -0.04252267 0.04660582 0.0077849813 0.0058101006 -0.024015825 0.042574678 -0.008160755 -0.020694377 0.012841292 0.022449138 0.035423093 0.04223302 -0.06526622 -0.0693995 0.002263543 -0.014883766 0.031824548 -0.009612102 0.019147534 0.0056490707 -0.016002642 0.03191629 0.019443352 0.10049977 0.010483035 0.033791043 -0.02092517 0.028756674 -0.024682166 0.041113187 0.0069472287 0.005947079 -0.085872546 0.03348383 0.05202856 0.061827432 0.010835816
a203 -0.0039375154 0.010512915 0.0023597546 -0.0031714328 0.026822887 -0.008671191 -0.01958299 0.02987072 -0.034677148 0.011374685 0.031425137 0.046348043 0.02089934 0.02991127 -0.028009048 -0.020874701 -0.0033581331 -0.0010927944 0.025003633 0.009337429 -0.027699346 -0.021493178 0.04085487 0.004437547 -0.00910084 0.012932546 0.023547567 0.011960603 0.014551658 0.00982966 0.005268093 0.011862685 0.04230817 0.025866553 -0.018139288 0.005624432 -0.020638784 -0.028425574 -0.026499195 0.017857859 0.037919484 0.0008481941 -0.024193462 0.031958416 -0.005494821 -0.002868358 -0.024825964 -0.0030175287 -0.017975615 0.0025346866 0.00021736603 -0.011454218 0.026453443 0.023341484 0.033630956 -0.016270136 0.02529779 0.0041075516 -0.026491052 -0.028297206 0.03929103 0.001817951 -0.0033407123 0.019270804 -0.0044861995 -0.006776022 0.016706008 0.029388076 -0.026617609 -0.025793798 0.022108981 -0.012929695 0.014613308 -0.011182663 -0.02671574 -0.025889983 0.0039319503 -0.011284845 -0.008395959 -0.020892844 -0.026200114 0.016072046 -0.005348576 0.032344963 -0.022233285 0.014308077 0.019618198 0.0175967 0.022831224 0.0051942905 0.03773742 0.017658053 0.0012662904 0.02199227 0.06609172 0.023583427 -0.01983023 0.02325629 -0.010693413 -0.02386834 -0.029117545 -0.006708497 -0.030247461 0.008182943 0.020694269 0.021323316
a204 0.010903249 0.0055879196 0.013980365 0.007537959 0.012893831 0.0048129894 -0.04071537 0.040761016 -0.042325485 0.018950583 0.01086144 0.018437315 0.03285686 0.006375269 -0.02000948 -0.015065953 0.013094958 0.01494442 0.019591976 0.002654424 -0.014546579 -0.02916316 0.018235086 0.0018238463 -0.037217785 -0.008429353 0.04362821 0.019899208 -0.0045971554 -0.015105298 -0.009907421 -0.015416497 0.018263679 0.013074705 -0.0088157235 0.026873907 -0.0066989716 -0.02389297 -0.0068995105 0.01051803 0.007177005 0.031294394 -0.041867215 0.04808326 -0.014308644 -0.0071770987 0.0049777683 -0.014335504 -0.0015727691 -0.019409416 0.0019878745 -0.001666341 0.033135954 0.06329647 0.044781044 -0.004063653 0.02095801 -0.014788517 -0.02775491 -0.05414555 0.05730003 0.02626892 -0.01121982 0.031332176 -0.008824486 -0.027384115 0.031552933 0.027290668 -0.015106617 0.012685778 0.017417349 -0.010159844 0.01678296 -0.016071398 -0.023359498 -0.054747745 -0.004411017 -0.034706708 -0.010887038 -0.0014973804 -0.03569008 0.0018552355 0.007276807 -0.0012098132 0.0048979213 0.0163328 -0.019628985 0.028216692 0.016388811 -0.009944208 0.039900187 0.04179603 -0.022340272 0.0231544 0.08136757 -0.012171596 -0.025597949 0.012737645 0.0065678023 -0.021184895 -0.041517943 -0.0061813435 -0.04105357 0.00076103397 0.031795964 0.018898258
a205 0.017688809 0.03729979 -0.01583265 0.05351755 0.080308564 -0.031681336 -0.010967196 -0.0010844348 -0.015701916 -0.054047685 0.014213264 0.078248546 -0.043476187 0.026812825 -0.009051355 -0.034135096 0.02316284 0.042080328 0.078092754 0.04371284 -0.046478108 0.012945491 0.086167544 -0.0024783523 -0.027950589 0.0067392215 0.06668509 0.01265444 -0.021383706 -0.04522996 -0.03739255 0.0419946 0.025168106 0.015542157 0.008597058 0.0949138 -0.03235852 -0.007129359 -0.009975445 0.014167157 0.025728555 0.020575378 0.0038826764 0.015515148 0.12042006 -0.010731821 -0.043189682 0.034872003 -0.03421352 0.03164133 0.0033412701 -0.008716677 0.040974047 0.023876475 0.019369079 0.006809755 -0.03372774 0.06905633 0.045577772 0.004924424 0.0061677634 -0.0073948763 0.006356448 0.04012745 0.006508794 0.0015429305 -0.005962088 0.031892646 0.019616604 -0.06431302 0.040414862 -0.02556118 0.036059365 -0.01846379 0.019395193 -0.0009911712 0.007204655 0.019194523 -0.014945619 -0.046762247 -0.011068765 -0.06146552 -0.025360094 -0.002611381 0.039546546 0.0037402776 -0.0044358647 -0.013796309 -0.010998365 0.005758492 0.054642845 0.009315791 0.00048581557 -0.005046565 -0.0076160347 0.04442979 0.01320586 0.026338207 -0.0040500043 0.012326115 0.012164509 -0.08972923 0.034692556 0.027131323 0.053522885 0.05221791
a207 0.0041834284 0.003601925 -0.00079983845 0.025159791 0.06280739 0.024397183 -0.008705215 0.05651193 -0.026109677 -0.053429946 -0.017131831 0.08324452 -0.050457384 -0.0020956588 -0.0060580764 -0.0011760443 0.0006353988 -0.019592028 0.062390935 0.02027212 0.002072201 -0.04101323 0.033503875 0.05668854 0.013468297 -0.001983447 0.04089185 -0.0017295382 0.0038204533 -0.048830077 -0.0016402742 -0.02339355 -0.08551788 0.02897922 0.035215378 0.07346614 -0.0385629 -0.0027851341 -0.0077855596 0.02191003 0.028506745 0.010477055 0.029372022 0.07906214 0.036097944 0.05436887 -0.05917129 0.09270211 -0.0330749 0.065083355 -0.03554904 0.026276026 0.0546569 0.050705142 -0.023228724 -0.05380387 -0.023284083 0.035559554 -0.0063334825 -0.03850722 -0.015256695 -0.007294681 -0.03374077 0.04654398 0.051626857 0.00871217 0.061125357 0.0015270971 -0.011670707 -0.0909701 0.069974296 -0.040113 -0.012105998 -0.018574234 0.0022598358 -0.051568784 0.004909763 -0.017563514 0.028068582 0.040621072 0.0063130353 -0.026576538 -0.04013414 0.04749095 -0.0051776357 0.05942197 0.010278258 0.049244147 -0.034686185 -0.017681258 0.02496167 -0.023442775 0.03848407 0.04553949 0.031455327 -0.023670007 0.033583548 0.05102347 0.025457976 0.006901726 0.0067835655 -0.052511442 0.04602507 0.10348485 0.073017225 0.062515266
a208 -0.006103399 0.0118180085 -0.0037416047 0.009184661 0.05176258 -0.015883798 -0.041663744 0.038263097 -0.07645805 -0.035919268 0.0035301086 0.06694603 0.01625866 0.025733605 0.011393348 -0.014267324 -0.014694688 -0.0062208716 0.013648432 -0.005674257 -0.042082716 -0.050176077 0.091418296 0.011959677 0.032197967 -0.016514778 0.041588474 0.031551316 -0.028229188 -0.00845006 0.010786168 -0.0037977598 -0.0076960186 0.060503542 0.032156747 0.058474347 -0.03339413 0.027143069 -0.061253645 0.03332761 0.036372837 -0.0019237632 -0.040214784 0.060814865 0.06513517 0.013691338 -0.036889073 0.020087466 -0.058220536 0.044966448 0.0133081 -0.044935662 0.016272347 0.0142146535 0.017558256 -0.012323199 0.02688336 0.01914246 0.026148913 -0.07114812 0.01698512 -0.0021891613 -0.007886532 0.04230818 0.00027717045 0.024662454 0.0023781061 0.016435884 0.012288302 -0.03703902 0.0014667807 0.03833598 0.0077157933 -0.039048124 -0.017105792 0.0006494401 -0.03802657 0.046927646 -0.020395989 -0.023346901 -0.029407497 0.0030509317 -0.018338237 0.03144567 -0.005290686 -0.006480756 0.04013294 0.039547794 0.01634245 0.007890423 0.025684591 0.006590418 0.03936022 0.041680682 0.01719445 0.040659353 0.0014973283 0.017959611 -0.011580496 -0.0145256445 -0.040637515 -0.030926676 0.04311216 0.019111812 -8.414872e-05 0.041222304
a209 0.020932093 0.032850593 -0.002823025 0.0055670217 0.03173419 0.006083751 -0.044290964 0.024162203 0.02013179 -0.02646313 0.027378377 0.053825326 0.03033325 -0.001777019 -0.025857985 -0.010320503 -0.0016316588 0.00010593608 0.035376683 0.011585517 -0.017241787 0.016821586 0.03711914 -0.011576225 -0.034608006 -0.010140164 0.0386585 0.005102741 0.020949306 -0.016541954 0.0038553774 0.002550023 0.030065197 0.016693246 0.016654894 0.01204609 -0.045440033 -0.006088026 -0.014364773 0.028131498 -0.007005479 0.052008152 -0.00792809 0.058927737 -0.023278806 -0.0235401 -0.014639453 -0.0020452843 -0.006482266 -0.024768319 0.005507967 0.010075234 0.071581244 0.01887066 0.029183457 0.004146875 0.044635467 -0.026823997 -0.04388994 -0.04082215 0.04379291 0.0035858732 -0.008752858 0.01699309 0.0004006212 0.0017941408 0.025788872 0.011582809 -0.021857865 -0.021650549 0.019427758 -0.027756255 -0.0054749344 -0.06428332 -0.04868183 -0.03750786 0.0003845133 -0.03371269 0.018850699 0.0004848626 -0.009803532 0.00715601 0.018710755 0.018256346 -0.011346826 -0.0016591903 0.025158765 0.006265627 0.019362893 -0.01811787 0.07699792 0.02353168 -0.01081383 0.046496253 0.07187725 0.010880493 -0.0029391944 -0.012898213 0.0049345046 0.023216212 -0.009996056 0.02806106 -0.06956934 0.02931156 0.0077660577 0.015266502
a219 0.035227828 0.0011885976 0.040750198 0.030701708 0.0368916 0.015619433 -0.0044259885 0.03411407 -0.0021785097 0.0020817425 -0.0048067155 0.04228023 0.022077786 0.0012983766 -0.014381305 -0.016323904 -0.042150237 0.012330615 0.030176464 -0.0040006135 0.05404058 -0.005114243 0.020496473 -0.022078618 -0.024958758 -0.054687865 0.03097444 -0.018294303 0.020428153 0.0039826883 0.00030532014 -0.00277771 -0.02324042 0.011503362 -0.019231781 -0.007848484 -0.052047953 -0.042696312 0.016490849 0.008908025 -0.0015907183 0.04486007 -0.047322463 0.02494422 -0.039674178 -0.024325235 -0.045056127 0.0055024256 -0.007853594 -0.017991513 -0.019881934 -0.0020780135 0.07221286 0.045073114 0.021102184 0.02400656 0.0016859202 0.013668095 0.008371595 -0.055428144 0.0035544503 0.0131130945 -0.010204889 0.019934699 -0.029195542 -0.027598873 0.0213868 0.0283073 -0.00077953096 -0.040341802 0.037147235 -0.047202565 -0.028646057 -0.021195127 -0.035749793 -0.03254507 -0.0261379 -0.06061435 0.015162605 0.003687478 0.00510988 0.004168229 0.027558455 0.0003320831 0.033065986 0.0006519567 -0.0033633069 -0.0027123895 -0.0076287854 -0.010187186 0.05633886 0.008374197 0.011979231 0.059340242 0.066683546 0.050384194 -0.014698219 0.026026439 0.02090185 -0.0029781144 -0.024981791 0.03306424 -0.04435052 0.008767107 0.06112296 0.033348054
a223 0.008531483 0.0106201405 0.011295618 0.0046009924 0.041620407 0.019628502 -0.0407824 0.07175042 -0.06553718 0.012144504 0.0149792675 0.027182763 0.037195 0.009382547 -0.00018927176 -0.01792351 -0.014521582 0.008880192 0.017346766 0.0040010726 0.018792812 -0.032939333 0.048785537 0.023085218 -0.04265202 -0.031260703 0.016448803 0.03474593 0.011691224 -0.022735912 0.0150103355 -0.010052664 0.009545176 0.03947687 0.02704611 0.03519645 -0.031477984 -0.044771105 0.003127943 0.0056815436 0.0057497397 0.0045638354 -0.033671316 0.06382899 0.022517134 -0.02801649 -0.0076460205 0.030247733 -0.02428321 -0.003758586 0.017352376 0.016557276 0.06835993 0.040533282 0.026255976 -0.013472244 -0.00033428147 -0.00018997095 0.011637686 -0.051192 0.076572075 0.01693879 0.00077454373 0.024331499 0.015214232 0.013561679 0.039987795 0.053001095 -0.027013704 0.004719841 0.011987998 -0.0166073 0.012371328 -0.016211446 -0.038667835 -0.06642829 0.0014200732 0.00647643 -0.004442944 -0.011765462 -0.005892325 -0.004555799 -0.03531203 0.031320997 -0.017479349 0.005990104 0.022414772 0.022093017 -0.019732822 0.0030846596 0.046600096 0.017622383 0.0025796285 0.012943128 0.075937055 -0.017729644 0.0020034183 0.026891068 0.0065753525 -0.035155706 -0.057221632 -0.006713694 -0.029295996 0.009273494 0.022257976 0.01603432
a225 0.011991108 0.0075279446 0.01849779 -0.017350405 0.031875424 0.0048514726 -0.03156889 0.08336198 -0.05073051 0.011799042 0.00893753 0.02785328 0.036343887 0.019138701 0.0070326226 0.00037143007 -0.020540321 0.0028671501 0.01743419 -0.013565827 0.0064925086 -0.035640866 0.03489224 0.017024614 -0.026115231 -0.021061674 0.013508387 0.028236857 0.0075533506 -0.0205949 0.003674612 -0.015923832 0.006243199 0.03262066 0.022372922 0.020648686 -0.03596826 -0.052731942 -0.008881705 0.0031184275 0.019316675 -0.004338625 -0.026689012 0.06419387 0.0054388517 -0.021876665 0.009248979 0.02756283 -0.024628352 -0.010666128 0.011674419 0.016356837 0.066260904 0.04908984 0.015569656 -0.010384062 -0.004763065 -0.02050167 -0.01651042 -0.04902733 0.07538838 0.022179188 0.0071441303 0.025351632 0.0038176593 0.013985323 0.042835455 0.03063199 -0.029530682 0.012096584 0.02117135 -0.036228858 0.036822416 -0.012806913 -0.034973495 -0.051947974 0.02286211 0.0032951739 -0.013377709 -0.010951487 -0.02499909 -0.013999871 -0.030956091 0.028814986 -0.018761775 0.0025357201 0.021646995 0.014058941 -0.0036865529 -0.0064507998 0.04935953 0.018588409 0.018937362 -0.0015929118 0.09785239 -0.026980933 0.0040694214 0.022337906 0.005545945 -0.019166626 -0.06385883 -0.016598508 -0.041168373 -0.00064005516 0.0046830196 0.030228285
a236 -0.0039013298 -0.0075863 0.0019818302 0.011746127 0.025981944 -0.003982831 0.018996105 0.00067082327 -0.012638353 0.010264203 -0.01224096 0.043184567 0.010653542 -0.0027050306 -0.011463303 -0.014866514 -0.017670296 -0.022312604 0.0189944 -0.027602693 -0.0011699181 -0.040522285 0.015895488 -0.035468116 0.015465019 -0.046943795 0.045524914 -0.009892708 0.010056274 0.0314676 -0.001482307 -0.013134299 0.013097803 0.0070040124 0.023378175 0.010163495 -0.017637527 -0.0023243483 -0.016257517 -0.017256057 0.024744978 -0.006151517 -0.0119209085 0.03506804 0.030779008 -0.0012500035 -0.037154883 -0.0024344746 -0.029099192 -0.0009998484 -0.022198977 -0.011974568 -0.006067761 0.017672151 0.053045884 -0.020011446 -0.04659469 0.00713188 -0.0018969122 -0.0064534876 -0.010433091 0.026405621 0.015759986 0.01495517 -0.01548451 -0.05199208 -0.0077588814 0.008114414 -0.0018856311 -0.05034297 0.04914088 -0.0787356 -0.035397507 0.00052978005 -0.029920312 -0.030962843 -0.013369046 -0.050531734 0.012280825 0.03574395 0.0077962372 0.019157132 -0.0053193867 0.007614996 0.009330537 -0.017269757 0.0132669825 0.036830407 -0.03834092 -0.02269179 0.023041125 -0.0010306034 0.0036959564 0.06771826 0.015776165 0.004305613 -0.019545967 0.0335073 0.071132906 -0.0038802912 -0.03219967 -0.0025068219 2.5240704e-05 0.016547563 0.032238938 0.016645828
a239 0.03621713 -0.0019325633 -0.023435561 0.050098777 -0.0050193965 0.0010827556 0.009944418 -0.0015359079 -0.012434539 0.0032627154 0.009777662 0.06704949 0.06188652 0.0032246192 0.0117770275 -0.004294578 -0.021389587 -0.012876488 0.019159537 0.0136524625 -0.00582134 0.018354954 0.037288412 -0.044388033 -0.042645536 -0.036288563 0.05957681 -0.0006362116 0.019182265 0.012743862 -0.012033814 -0.012789512 -0.0072752694 0.036729895 0.020527776 0.024931021 -0.044365726 0.00644797 0.008363063 0.0026009036 0.022549845 0.018959718 -0.002138693 0.007878542 -0.043301005 -0.021073408 -0.034131683 -0.026626315 -0.024161058 -0.028476302 -0.013233557 0.021110184 0.041488767 0.03586656 0.0490921 -0.008089555 0.005514211 -0.030921942 0.025934441 -0.008184224 0.035114635 0.019122032 -0.0048132353 0.013306476 0.008935328 -0.00050504133 0.0074260067 0.022186704 0.00019756518 0.0020852368 0.0031880273 -0.045248136 -0.024588017 -0.022345833 -0.04350708 -0.024419172 -0.03180351 -0.048090443 -0.00089496933 -0.021443041 -0.0042931847 0.002161853 0.03161221 0.012962119 -0.019023146 -0.014427236 0.010454621 0.011195695 -0.0155445 -0.023639139 0.07058363 0.016521035 -0.016332533 0.037203107 0.03815393 -0.0034138877 -0.04325372 0.013251182 0.019195216 -0.0037323236 -0.015051167 0.018891197 -0.0020193923 0.0009890236 0.05659437 -0.012263746
a252 -0.007731924 0.004152245 0.025460964 0.009268172 0.015510971 -0.008264655 -0.012399799 0.030152943 -0.036180306 -0.0017440803 -0.000856939 0.045445323 0.016843984 0.007697654 0.028994873 0.0053236857 0.010379279 -0.010298468 0.010938906 -0.027424378 0.014093697 -0.019286824 0.025284983 -0.0399363 0.0023447461 -0.048858497 0.03536097 0.010840799 0.0040420312 -0.020939842 0.035076164 0.009844305 0.0041876156 0.031887334 0.030802023 0.027881783 -0.04799452 -0.0064276885 -0.00020470563 0.024884222 0.004460644 0.033245213 -0.02789044 0.011238042 -0.016042883 -0.037896376 -0.007881772 -0.013194235 -0.039077953 -0.030095104 0.0040025488 -0.04014708 0.04783284 0.0396687 0.0419909 0.016094089 -0.009031783 -0.008278563 0.020525118 -0.05328833 0.015936835 0.042749606 -0.001986052 0.013578945 0.02665845 -0.022810467 0.04005522 0.01099327 -0.020534355 -0.022004459 0.045662027 -0.014644796 -0.0021861382 -0.038776536 -0.028857462 -0.031075928 -0.025738643 -0.058923174 0.015489291 0.025520705 -0.008012464 -0.03792682 -0.02538074 -0.03880133 0.007528235 -0.00046033436 -0.0080733895 0.014144451 -0.014883401 -0.019917265 0.049847133 0.02423247 -0.027580164 0.050137475 0.04923348 -0.040774487 -0.0193232 -0.007950039 0.038616784 0.027743103 -0.02539915 -0.011851332 -0.043999553 -0.008790901 0.060855784 0.014594901
a263 0.0006455723 -0.014968365 -0.016081467 -0.019444808 0.01156874 0.0029800385 0.009532134 0.008045546 -0.013006694 0.052632913 -0.0074887257 0.05301179 -0.012057157 0.0051511787 -0.03024227 -0.032109797 -0.019117543 -0.018290257 0.030354306 -0.014668429 -0.008662822 0.005370726 0.0038661417 -0.015139479 0.0051740147 -0.01891021 0.0335599 0.0093006985 0.010664026 -0.0013541201 0.016000586 -0.011149781 0.01421752 0.021504726 -0.0002816394 0.01603976 0.008873185 -0.015203978 -0.0017796571 -0.004219274 0.024468971 0.0015824344 -0.03826736 0.021681082 0.008501001 -0.030454196 -0.035516042 0.0008691086 -0.025591467 -0.006327054 -0.037025873 -0.008837497 -0.011729498 0.022901166 0.049114034 -0.008639937 -0.0053306352 0.01811513 0.011663798 -0.018164836 0.030928541 0.025515422 -0.019955302 0.03459344 -0.005742452 -0.039325003 0.0028983671 0.030636538 0.024132239 -0.04274994 0.04245152 -0.030924106 -0.0012244098 -0.03037994 -0.009028791 -0.043253306 -0.018862886 -0.04973184 0.016180672 0.023103705 0.013074569 0.0035931617 0.002140846 -0.015174283 0.010894096 -0.016342593 -0.020575237 0.06045767 -0.009790195 -0.0118067805 0.040264115 -0.034797385 0.025730006 0.06417434 0.011332485 -0.005086279 -0.01611304 0.0045892973 0.029389312 -0.0075318944 -0.037203845 -0.018417846 -0.0061816806 0.025883324 0.025036385 0.013017929
a274 -0.028461818 0.019899784 0.016732847 -0.0072839875 0.019404275 0.01092609 -0.024547607 0.036895655 -0.020532403 -0.005378874 0.025376 0.036089797 0.037097733 0.041080978 0.003607578 -0.014572425 0.006255398 0.0067722998 0.024280198 -0.032690212 0.00572812 -0.028282737 -0.0023862012 -0.024064785 -0.004519617 -0.024418991 0.037140146 0.0044553294 0.022244513 -0.013276939 0.02659553 0.017500293 0.04504298 0.002873946 0.004259468 -0.020736216 -0.027518297 -0.0005498603 0.005827557 0.020137029 -0.0022697204 0.02497971 -0.026071833 0.019095369 -0.029360356 -0.036771536 -0.013260497 -0.01303901 -0.02836616 -0.041103538 -0.022905944 0.008672123 0.017632058 0.05385821 0.04008668 0.008218987 -0.013100384 -0.0124830445 0.024610039 -0.010797607 0.039642967 0.04679779 -0.024222778 0.014215545 -0.006673595 -0.047583926 0.025446495 0.011104554 -0.01042353 -0.035361327 0.033203244 -0.027272362 0.020756079 -0.021127107 -0.027332772 -0.030220991 -0.039740603 -0.037243046 0.010530245 -0.003993016 -0.0186783 -0.020285288 -0.034237474 0.0027811192 -0.0012359899 0.016953895 0.016179392 0.0034081824 0.0014076848 -0.03576768 0.033664774 0.045808498 -0.037897475 0.038498487 0.08713439 -0.0029686484 -0.051506814 0.029022101 0.00061463704 0.00028575212 -0.015059654 -0.017850302 -0.046747494 -0.00749973 0.048731327 0.0141955335
a278 -0.023872955 -0.028998774 -0.012920855 -0.0053944513 0.021702893 0.025771989 0.0035699366 -0.01046343 -0.039789096 0.016353132 -0.0057674423 0.03626322 0.008172974 -0.0030846302 -0.039154757 -0.017773313 0.0066721593 0.020731889 0.009076721 0.0029689595 -0.005712608 0.0075582126 0.0056890436 -0.00050013047 0.0059403162 -0.009748968 0.06290465 -0.020100437 0.024711497 0.036242854 -0.017104901 0.021649966 0.031237487 0.012547337 -0.025599336 0.014824082 -0.0030787773 0.00042561628 -0.024027582 -0.026990686 0.027420063 0.019563183 -0.026738524 0.03672654 0.011830184 -0.0010739407 -0.017189953 0.029954297 0.00021295343 -0.012611406 -0.02142398 -0.010617815 -0.0013629794 0.04380194 0.022817517 -0.008997592 -0.0007269811 0.005267535 -0.015366465 -0.012250462 0.035408154 0.013503991 -0.02238612 0.028552191 -0.020326175 -0.016861 0.0042130626 0.018711757 -0.0040722312 -0.010006612 0.012718538 -0.027708922 -0.0055387244 -0.008800096 -0.016896613 -0.023492865 -0.017184623 -0.0084593985 -0.028638616 0.029013779 -0.03193213 0.010858058 -0.0068157427 0.021513896 0.032037374 0.0032057555 0.014974377 0.0072354414 0.0036716498 -0.011573259 0.037121836 0.024742737 0.00089294836 0.05739186 0.055649243 0.011045838 0.0003077872 0.052134052 -0.00015311141 0.0013751052 -0.045157995 0.030255497 -0.028572438 0.030790437 0.0326967 0.0019373025
a288 0.020361524 -0.032171868 0.015881384 0.002773989 0.027632203 -0.008780265 0.013582697 -0.0021020249 -0.06110788 0.011652698 0.028040357 0.03437048 0.011188856 -0.0047347588 -0.003724575 0.00964202 0.03357955 0.0065484364 0.009246156 -0.015501089 -0.0136127 -0.015171908 0.038716264 0.017117519 0.03357425 -0.028484581 0.010987907 0.007614825 0.025460728 -0.04097137 -0.002093898 0.0020760815 0.012186749 0.038164176 0.0051229484 0.029707959 0.0012328802 -0.026369588 0.002437688 0.031074867 0.028066283 -0.009554473 -0.0073151775 0.016255628 -0.007810587 -0.030989466 -0.03767191 0.012548512 -0.03220345 0.010082077 0.014970814 -0.02405491 -0.005712565 0.06499921 0.018592749 -0.017161824 -0.005441119 -0.015288946 0.00029427558 -0.025255833 0.011878641 0.015827581 0.030393096 0.0044626575 0.020811794 -0.027815012 -0.009066409 0.03816115 -0.0102399485 -0.019855555 0.04047541 -0.031076964 0.006020125 -0.020659022 -0.0126111 -0.0059315525 -0.012240215 -0.04585554 0.0038017302 0.014326765 0.006716354 -0.02235018 -0.0026997887 -0.024394415 0.013820195 -0.015367568 -0.017264837 0.023244862 0.012177574 -0.015768839 0.03951163 0.023777876 -0.0012460137 0.040072314 0.044911906 -0.009126422 -0.011226751 0.014122649 0.0063780397 0.0012319051 -0.06030316 -0.021065889 -0.03664369 0.061940648 0.03878336 0.020641327
a296 0.0032932553 -0.01917252 -0.017891308 0.038265634 0.01832401 0.011054404 -0.006933087 -0.0038010525 -0.05309443 0.017069142 0.02899203 0.04566709 0.022726052 0.014936006 -0.046045247 -0.011791706 0.0038796193 -0.0218406 0.0153442 0.017513487 0.0005749967 0.010576999 0.0043337755 0.008954598 -0.0051484145 -0.023177942 0.0770508 0.0049998565 0.027281592 0.00207132 -0.007948029 0.012425369 0.009584344 0.019343592 0.008360845 0.021644061 -0.01168946 0.0046876483 -0.017635103 0.023790741 0.017824195 -0.0075308266 0.009514503 0.011637951 -0.020897603 -0.0022246614 -0.026262216 0.010400486 -0.037344072 -0.013660755 -0.001047099 0.012134359 0.0058436804 0.022611938 0.03465691 0.00033583865 -0.021616366 0.0041285865 0.00848221 -0.025343992 0.041975994 0.0039552115 -0.003562761 0.015968263 0.0024791183 0.0033139866 0.011376984 0.035809208 -0.016143072 -0.036867693 0.031211399 -0.03416415 0.011897346 -0.017875955 -0.03971205 -0.034371696 -0.021923156 -0.039316468 0.01703591 0.0021099567 0.011118928 -0.022499634 -0.013294347 0.019736843 0.004905438 -0.012405245 0.006771853 0.0179962 -0.036016464 0.008331718 0.033157643 0.013339959 -0.011947002 0.06393354 0.022131471 0.00037540332 -0.03325551 0.03102016 0.006120288 -0.021048252 -0.012204515 0.0021394775 -0.02854378 0.031022403 0.049134508 -0.009664958
a300 0.054562367 -0.001756683 -0.0036169137 0.027863683 0.0787351 -0.042941704 0.021911807 0.018632984 -0.02350638 -0.00963161 -0.011410219 0.05676984 -0.0027035056 0.015793106 -0.0051602437 0.03372687 0.041100398 -0.0012470488 0.037877075 0.023963824 -0.030002043 0.007525104 0.031262036 -0.017752295 0.011068175 0.020782927 0.03221509 -0.016507 -0.04113788 -0.023639934 0.016809648 -0.0055264225 -0.048254512 0.046755753 0.051314786 0.041872386 -0.07203867 0.0056795618 -0.019585516 0.0058874236 0.008710245 0.0101255635 0.059952646 0.06868457 -0.014326721 0.012314988 -0.037434578 0.0030173254 -0.0014578374 0.027151529 -0.034736287 0.019285586 0.039535057 0.0050204983 0.027761195 0.017935295 -0.028782554 0.010713567 0.015194899 -0.024807058 0.04276987 -0.0091736335 -0.013579813 0.001357167 0.03635531 0.016146006 0.020713829 0.025813788 -0.05110679 -0.052151274 0.05470073 -0.04926385 0.014798837 -0.037754133 -0.013728479 -0.01895927 -0.007606237 -0.039329346 0.04342708 0.026715277 -0.0040919017 -0.056872893 -0.03850177 0.0033233725 0.008857893 -0.005582229 0.017367072 0.034506388 -0.049984664 -0.03887277 0.049244907 1.2465753e-05 0.027653847 0.05426269 0.041249067 -0.011682335 -0.0020227432 0.032144673 0.017590575 0.008529299 0.015519961 -0.018690413 0.00022816844 0.027302383 0.015122723 0.017684417
a308 -0.024575472 -0.00621161 -0.0007520644 0.006506771 0.027148917 0.020282622 0.0138987955 0.027471133 -0.02603941 0.027757492 0.0036618006 0.044428937 0.033903804 0.029498931 -0.004323667 -0.04387424 -0.03913115 -0.009197609 0.014516673 -0.00058354624 -0.011778699 -0.005213723 0.05286669 -0.035487633 -0.03146949 -0.007272911 0.03725432 0.006858323 -0.0017927699 0.024485685 -0.0056898817 -0.0048272475 0.003392172 -0.0014866656 0.0050255563 0.028884808 -0.0015460509 -0.013521803 -0.029052466 -0.0056774677 0.019823445 0.009547364 -0.033673156 0.03197145 -0.0133532155 -0.0058391243 -0.027403546 0.008342138 -0.0053565763 -0.026171641 -0.014398509 -0.019697886 0.013387483 0.03474941 0.047136374 0.004167417 -0.0062940093 -0.020413518 -0.0025994126 -0.016257782 0.04158944 0.027350375 -0.011735649 0.020969305 -0.017743008 -0.016276682 0.012450324 0.04167084 -0.0035463031 -0.014244601 0.017219566 -0.031710528 -0.015711587 -0.014394323 -0.014429348 -0.008730082 -0.019246843 -0.048244555 -0.0025030838 -0.0035541076 -0.031692687 0.0044019427 0.0019156914 0.009125483 0.026550045 -0.004782729 0.0138635 0.0061330907 0.0031546624 0.0102060195 0.04628802 0.0092267785 0.0043870155 0.020723242 0.05773318 0.018195331 -0.0297196 0.022505589 -0.006344104 -0.0075326907 -0.004317104 -0.0017585345 -0.0013920148 0.0130697945 0.02581599 0.011990743
a309 0.034620754 0.019375596 0.053104684 0.032190815 0.0638572 -0.030762788 -0.012522289 0.008755146 0.02659108 -0.03499499 -0.041108828 0.06766817 -0.004203121 0.051436476 0.0366237 -0.05843897 0.03782532 0.003061594 0.087896615 0.0084412 -0.041246787 -0.003151687 0.0644503 0.014123683 0.012889004 -0.0041845036 0.0071574803 0.015503811 -0.020097256 -0.07669548 0.0040451265 0.03907781 0.026149439 0.0023705317 0.0029187405 0.06473996 -0.039630678 -0.030915525 -0.05202002 -0.018821405 0.03761376 0.025132757 -0.011407499 0.046337925 0.08085101 -0.022680216 -0.00046058558 -0.0020392255 -0.01371246 0.007200365 0.007229534 -0.04616582 0.011519985 0.031733412 0.063048564 -0.01636894 -0.00810342 0.0066977735 0.027722117 0.025705166 0.0011029653 -0.004878156 -0.020499764 0.03904643 0.017446479 0.036831878 -0.037892137 0.011531578 -0.00779208 -0.050087288 0.044703927 -0.046246473 0.02374808 -0.02947275 -0.03830077 0.033279754 0.017646357 0.019749979 -0.040451493 -0.010453631 -0.0016214103 -0.030942608 -0.039576232 -0.0041078716 0.033600792 0.0077993684 -0.011884438 0.0022652755 0.01013868 0.004681117 0.038155876 0.012594949 0.017495297 0.00835278 0.07572487 0.01740944 -0.010637319 0.00970191 -0.028613258 0.051640548 0.041776616 -0.10106453 0.021707995 0.03554144 0.06389688 0.044673204
a315 -0.0035491819 0.0022975216 -0.0062655783 0.040933862 0.03842208 -0.0015288293 -0.023928238 0.03261602 -0.072787955 -0.038592655 -0.006284616 0.08220668 0.021502307 0.027316496 0.010834362 -0.02411556 -0.009442676 0.025140714 -0.006790832 0.011445906 0.022147974 0.022014754 -0.012054736 0.024906848 -0.025221478 -0.030981844 0.029136397 0.02035758 0.020548243 -0.07672099 -0.01689821 -0.010967668 -0.0041540824 0.061979994 -0.0034757443 0.046556197 -0.04752733 -0.011285963 0.019736776 0.003482548 -0.014586307 0.054148212 0.0056945533 0.06456078 0.00021439046 -0.0100050215 -0.00096941367 0.037525948 -0.0442183 0.030985232 0.029329028 -0.0077918638 0.087009594 0.054830402 0.027579919 -0.025399303 -0.030572727 -0.0011035121 -0.005200263 -0.05283995 -0.0035275053 -0.0033323672 0.006135687 0.0083370535 0.027873933 0.034580998 0.0409128 -0.012605179 0.03212898 -0.040970154 0.006034903 0.001172029 -0.01562903 -0.025764212 0.0074742413 -0.0019924287 -0.04556281 -0.0016128123 0.025617372 -0.0106295245 -0.020521153 -0.027426787 -0.030471416 -0.0056184484 -0.01767938 0.07330572 0.0111337695 -0.018223884 -0.011357823 -0.008032752 0.029250614 -0.016384205 0.015314532 0.061379492 0.05004181 0.031483557 -0.02798086 -0.033274125 0.016392976 -0.0288468 -0.003534556 -0.025571613 0.006437743 0.042093247 0.06874569 -0.0048202984
a335 0.026672937 -0.013531165 0.031390276 0.023716465 0.04708969 -0.0013214545 -0.0067476397 0.013090901 -0.038253892 -0.042642456 0.014322437 0.059774417 -0.030849876 0.025941825 -0.029111318 0.04232105 0.026597518 -0.005294724 0.022714796 0.008507069 -0.02275129 0.010999027 -0.007131979 -0.0071018958 0.030711204 -0.0067096082 0.08175363 -0.024367068 0.011977653 -0.03931242 -0.043047104 -0.01361767 -0.011830129 -0.024437988 -0.009598673 0.039285593 -0.014647387 0.0027435161 -0.027322603 0.037210185 -0.0059934976 0.044496182 0.037186828 0.06623864 0.0036562253 0.027584922 -0.031256955 0.028385784 -0.008584645 -0.00022307737 0.0022974284 0.032285873 0.012408022 0.07568076 -0.014749154 0.011649 -0.021211656 0.0043774457 0.0077506723 -0.034681354 -0.0058806343 0.0003322158 0.013588585 0.05239792 0.020234369 -0.0054911682 0.027784914 -0.0013589319 0.008057119 -0.07879005 0.06301752 -0.03277069 0.03191226 -0.060656827 0.0084274355 -0.0386858 0.0023885267 -0.015032154 0.020832362 0.033694137 0.012001675 -0.017211113 -0.036049318 -0.012341718 0.013744456 0.023925299 -0.012539813 0.014829399 0.023743652 -0.008737694 0.036028348 0.028913023 0.026257426 0.033224802 0.03484068 -0.029733595 0.023681246 0.004438461 0.00898933 0.02539637 0.024147084 -0.037880875 0.005905062 0.04523191 0.060958553 0.019371592
a348 0.006227387 0.011070054 -0.009845512 0.0040976107 0.028803233 -0.0037914691 0.009463515 -0.01988053 -0.061933775 -0.006760575 -0.00562911 0.030370828 -0.006443737 -0.009582923 -0.00154584 -0.021885501 0.019339934 0.013696592 0.051152527 -0.05983953 -0.02189527 0.02237574 0.057332434 0.026791131 0.009735918 -0.0021886781 0.03880292 0.008934265 0.037034947 -0.004447941 -0.011506458 0.0118342405 0.0069302777 -0.016464211 -0.014421711 0.03433487 -0.007976286 -0.024500016 0.016002195 0.0043434296 0.047026288 -0.006004026 0.014755867 0.027465513 0.06722197 -0.017620064 -0.029701686 0.03911309 -0.023263598 -0.030575886 -0.00023713708 -0.011935976 0.016578099 0.041950848 0.01633979 -0.029919233 -0.021972846 -0.0026160516 -0.011870751 -0.0021994095 -0.0039044283 0.01008804 0.017652046 -0.014984351 0.014777174 0.011135448 0.007266419 0.017560862 0.011664648 -0.03169281 0.017796274 -0.07383562 -0.004716875 -0.018652013 -0.025354952 -0.02991596 0.03615407 -0.02768199 0.037726212 0.011950262 0.015811801 -0.040693015 -0.01066206 -0.045195617 0.021910574 0.041964743 -0.027811972 0.0337075 0.016152302 -0.008300402 0.049381502 0.0382622 -0.02854884 -0.0007185191 0.06783342 -0.006025076 -0.0026521794 0.04019777 -0.018241772 0.025583372 -0.015426798 -0.036750183 -0.010451057 0.0508663 0.072141334 0.012268397
a351 -0.025566936 -0.0013336646 -0.0066297036 0.0044409707 0.029534444 -0.0020019598 -0.007445125 0.0075388625 -0.036092456 0.021881623 -0.023913728 0.06590742 0.031089995 0.023629427 -0.009209119 -0.0048858337 -0.0035197744 -0.0064240256 0.030083893 -0.039814405 -0.025355604 0.0084381 0.048231512 -0.019803863 -0.0042755157 -0.013748861 0.07374286 0.020904595 0.00053182617 0.038159497 -0.0082109505 0.024943082 -0.020731628 0.01353054 -0.007960806 0.021852354 -0.025739832 -0.01653297 -0.029997962 0.00033716438 0.023063747 0.0072232718 -0.027374474 0.0051680338 0.017178014 -0.0077278838 -0.023467572 0.030389097 -0.022035042 -0.025274202 -0.004874303 -0.021308878 0.019805357 0.017797505 0.034699995 0.002487285 -0.027560629 -0.02851084 0.0022043437 -0.028979873 0.012062075 -0.013309624 0.018422779 -0.016119028 -0.016068852 -0.01141932 -0.0021124182 0.025075547 -0.008928618 -0.0013124645 0.011007864 -0.03482565 0.01869217 -0.011176111 -0.043447074 -0.023999745 0.0018939767 -0.042987928 0.0055927737 0.0041315714 0.017308176 -0.027599312 -0.020670097 -0.021123284 0.03480402 0.009325419 -0.0033818241 0.023276595 -0.019777616 0.0069938023 0.050320733 0.0009891577 -0.01686959 0.02309566 0.06054988 0.0040656608 -0.017232904 0.025144618 -0.025914967 -0.0056248643 -0.027609043 -0.0070867436 -0.008048284 -0.005483156 0.010077152 0.006226945
a355 0.03022714 -0.0072270758 0.03529283 0.021229044 0.053268827 0.00630904 0.011513079 0.038871177 -0.052238595 -0.015044155 -0.05045341 0.07851445 -0.043440674 0.010711442 0.018169396 -0.008087912 -0.026948595 -0.022553902 0.028980238 -0.008996054 -0.010710161 -0.015506469 0.068747774 -0.0031952905 0.00944729 -0.01809628 0.04693165 0.017028736 -0.009339582 -0.02022284 -0.018590214 0.028962128 -0.020454798 0.034092627 0.0030494058 0.049865536 0.011191965 -0.048517726 -0.02233604 -0.02343614 0.011545055 0.017815884 -0.01980186 0.053395845 0.0732033 0.015170759 -0.02326727 0.025966201 -0.05277878 0.03271909 0.004500393 0.0052853553 0.015560745 0.03917814 -0.0024145842 -0.017627232 -0.023986498 0.02332565 0.031517487 -0.050678417 -0.0004663635 0.016594173 0.02396153 0.046329476 0.04151229 0.0117909815 0.0023772637 0.014510461 0.014410625 -0.07572333 0.058693916 -0.04627946 0.006343337 -0.015335403 -0.0044026454 -0.026017707 -0.00065941364 -0.013685017 -0.0034192617 0.01014404 -0.0032504508 -0.03158188 -0.039808296 -0.010931888 0.012123516 0.0053573493 0.0020409573 0.0020253928 -0.00873426 0.009613283 0.06482196 0.00015840214 0.053858534 0.018078387 0.015124567 -0.01851371 0.02475001 0.037904955 0.008703223 0.0032373574 -0.0096429465 -0.0530288 0.04369319 0.039247308 0.032006174 0.034505263
a357 -0.002798262 -0.0001714779 0.030562151 0.0024448708 0.03735411 0.02424837 -0.0015251925 0.026380409 -0.0012395438 -0.008247528 -0.014832177 0.051869184 0.024326194 -0.008088818 -0.012372348 -0.024603933 -0.00054759346 -0.009189616 0.024655484 -0.017267713 0.031925596 -0.0032360912 -0.026313737 -0.037085056 0.008355435 -0.05281366 0.07903071 -0.010977903 0.039306868 -0.019688232 -0.027043974 -0.0019859835 -0.0074642487 0.0024849772 0.0013070777 -0.017090326 -0.031041903 0.011320259 0.0047298255 -0.034236092 0.020193446 -0.0047684666 -0.0039624833 0.033173054 0.029418701 -0.027825184 -0.03377241 0.045851044 -0.0044516325 0.020858504 0.0015287483 0.014263724 0.04098245 0.04322622 -0.0018976666 -0.007903064 -0.029441418 -0.03673561 0.0024819756 -0.0070809936 0.013363756 0.0037420094 0.033988185 0.04686266 -0.00020293635 -0.018737104 0.056843452 -0.002729509 0.0021643005 -0.05981615 0.038917705 -0.06997861 0.019540692 -0.018526351 -0.006782865 -0.050551318 0.0020450489 -0.0040529594 0.03496629 0.054024883 0.006574588 -0.02097191 -0.03491704 -0.0051004337 -0.0037685654 0.0067888233 -0.023039253 0.044408448 -0.022804748 -0.02172931 0.054491974 0.030333925 0.0004780963 0.04915352 0.040659867 -0.007121921 0.0041153096 0.030363899 0.042638898 -0.018794945 -0.004396092 0.025574941 -0.047448426 0.059585635 0.07659519 -0.001967351
a362 0.02579432 -5.700905e-05 0.027964829 0.029259581 0.05276238 0.01363644 -0.057114553 0.0063836407 -0.044571698 -0.0074964073 0.0044994284 0.067191266 0.035706855 0.01969455 -0.048427053 0.033050142 -0.0053852764 -0.03145109 0.05249774 -0.013080195 -0.0025855778 0.009556091 0.035412125 -0.08327891 -0.009781705 -0.03217179 0.07790506 0.011652555 0.007118083 0.012164782 0.024029704 0.04060311 -0.028734054 0.02370156 0.061814833 0.039762937 -0.03753815 0.0058425013 -0.01922062 0.035744008 0.00077059655 0.042926386 -0.005658513 0.04275909 -0.010199924 0.0036122352 -0.051587243 0.0084896255 -0.0093945 -0.013581104 -0.00073814206 0.059615213 0.0551659 0.008510022 0.006393033 -0.008254343 -0.024429694 -0.034031484 0.025681322 -0.04090868 0.048897978 -0.020488715 0.017281596 0.017965836 0.030486207 -0.003531834 0.029165545 0.027455535 -0.0349271 -0.03049272 0.034928467 -0.009242817 0.009196607 -0.042460203 -0.05291376 -0.059392072 -0.022799551 -0.033265397 0.011209877 0.0299946 0.022512067 0.0049725277 0.0033619422 -0.025774403 -0.034943707 0.00011991477 0.016970461 0.038565733 -0.01750552 0.026893359 0.055180743 0.010108976 0.020596959 0.054681167 0.021750012 -0.045414574 -0.020999042 -0.023932645 -0.013788704 0.024182403 -0.030058362 -0.018580612 -0.005881488 0.002272307 0.030543575 0.0049293917
